%YAML:1.0
opencv_ml_svm:
   format: 3
   svmType: C_SVC
   kernel:
      type: RBF
      gamma: 5.0624999999999998e-01
   C: 1.2500000000000000e+01
   term_criteria: { epsilon:1.1920928955078125e-07, iterations:1000 }
   var_count: 81
   class_count: 16
   class_labels: !!opencv-matrix
      rows: 16
      cols: 1
      dt: i
      data: [ 40, 41, 42, 43, 45, 47, 48, 49, 50, 51, 52, 53, 54, 55, 56,
          57 ]
   sv_total: 2167
   support_vectors:
      - [ 4.91213888e-01, 4.91213888e-01, 5.73532172e-02, 0.,
          3.16183478e-01, 4.05727118e-01, 5.78344613e-02, 0.,
          4.91213888e-01, 4.61462706e-01, 3.71925622e-01, 2.96654943e-02,
          2.08112448e-01, 4.61462706e-01, 1.40950412e-01, 2.00918093e-02,
          3.92118514e-01, 4.61462706e-01, 4.97202933e-01, 0.,
          4.85260002e-02, 3.40424538e-01, 2.85918146e-01, 5.60427234e-02,
          2.24205822e-01, 4.97202933e-01, 4.97202933e-01, 3.75832915e-01,
          4.01188344e-01, 4.01188344e-01, 1.12398557e-01, 4.01188344e-01,
          4.01188344e-01, 4.01188344e-01, 1.82193160e-01, 6.44487813e-02,
          1.85227454e-01, 7.12312758e-02, 1.41775280e-01, 5.38599789e-01,
          5.38599789e-01, 5.38599789e-01, 1.34290919e-01, 9.78082940e-02,
          1.93049759e-01, 6.65128455e-02, 0., 1.45892724e-01,
          4.27621692e-01, 4.27621692e-01, 3.06729823e-01, 4.27621692e-01,
          4.27621692e-01, 3.80125523e-01, 0., 1.30127057e-01,
          4.33119059e-01, 2.99818993e-01, 4.61911440e-01, 4.61911440e-01,
          4.61911440e-01, 2.46744812e-01, 0., 0., 0., 0., 0.,
          4.25156325e-01, 3.09562445e-01, 7.78347135e-01, 3.31391931e-01,
          0., 0., 0., 0., 0., 9.95024860e-01, 0., 0., 0., 0. ]
      - [ 5.74963987e-01, 5.74963987e-01, 0., 0., 5.00806756e-02, 0., 0.,
          0., 5.74963987e-01, 6.22072875e-01, 1.63623437e-01, 0., 0.,
          2.69576609e-01, 0., 0., 3.46980453e-01, 6.22072875e-01,
          5.75543582e-01, 0., 0., 0., 2.23990846e-02, 0., 0.,
          5.75543582e-01, 5.75543582e-01, 4.26312596e-01, 4.26312596e-01,
          2.38632962e-01, 5.71251772e-02, 4.26312596e-01, 4.26312596e-01,
          1.63768932e-01, 0., 4.26312596e-01, 4.13319498e-01,
          9.95020121e-02, 2.36246586e-01, 4.13319498e-01, 4.13319498e-01,
          4.13319498e-01, 6.50159791e-02, 2.67891765e-01, 4.13319498e-01,
          8.29960778e-02, 4.21411023e-02, 2.04317480e-01, 4.35429424e-01,
          4.15699333e-01, 1.18488923e-01, 4.35429424e-01, 4.35429424e-01,
          4.35429424e-01, 1.77121386e-02, 1.34808570e-01, 3.47660929e-01,
          2.22426310e-01, 6.01209760e-01, 6.01209760e-01, 2.86813378e-01,
          0., 0., 0., 1.22645631e-01, 5.33203483e-01, 5.33203483e-01,
          5.33203483e-01, 3.52069020e-01, 5.01857512e-02, 1.33960163e-02,
          8.04580655e-03, 0., 4.48054522e-02, 2.58259624e-01,
          4.35695976e-01, 4.35695976e-01, 4.17463481e-01, 4.35695976e-01,
          4.18705821e-01, 8.86513665e-02 ]
      - [ 5.48337996e-01, 5.48337996e-01, 3.04138988e-01, 0., 0., 0., 0.,
          0., 5.48337996e-01, 6.60469711e-01, 2.07747847e-01,
          1.74515173e-02, 0., 0., 0., 0., 2.78391838e-01, 6.60469711e-01,
          5.75688422e-01, 0., 0., 0., 0., 0., 0., 5.75688422e-01,
          5.75688422e-01, 4.38595057e-01, 4.38595057e-01, 4.38595057e-01,
          1.35675222e-01, 4.38595057e-01, 3.19065094e-01, 2.50654608e-01,
          6.83911443e-02, 1.96063727e-01, 3.91537547e-01, 2.38224640e-01,
          2.14242518e-01, 3.91537547e-01, 3.91537547e-01, 3.70023072e-01,
          2.67879307e-01, 2.67497003e-01, 3.91537547e-01, 2.73423761e-01,
          4.24759686e-02, 1.95712656e-01, 4.16343361e-01, 4.16343361e-01,
          1.19430475e-01, 4.16343361e-01, 4.16343361e-01, 4.16343361e-01,
          1.69201180e-01, 4.38821644e-01, 4.38821644e-01, 3.91913623e-01,
          4.38821644e-01, 3.93144488e-01, 2.75306195e-01, 7.30884448e-02,
          0., 2.69726794e-02, 1.18978657e-01, 3.54587197e-01,
          4.54334885e-01, 4.54334885e-01, 4.54334885e-01, 4.54334885e-01,
          1.70727834e-01, 4.19176510e-03, 0., 4.47416715e-02,
          2.56225616e-01, 4.36483711e-01, 4.36483711e-01, 4.16869193e-01,
          4.36483711e-01, 4.18109804e-01, 8.85251686e-02 ]
      - [ 5.84957600e-01, 5.84957600e-01, 9.78082940e-02, 0.,
          1.02933809e-01, 9.97417718e-02, 1.42177120e-02, 0.,
          5.28673649e-01, 4.78676528e-01, 4.69518811e-01, 1.68632455e-02,
          1.18300781e-01, 4.74310786e-01, 1.70297578e-01, 2.42751036e-02,
          2.18329668e-01, 4.78676528e-01, 5.57684958e-01, 0.,
          2.10770518e-02, 1.47861898e-01, 1.42167836e-01, 1.36594046e-02,
          1.36702642e-01, 5.57684958e-01, 5.57684958e-01, 4.29383844e-01,
          4.29383844e-01, 4.29383844e-01, 6.06036000e-02, 2.23106027e-01,
          4.29383844e-01, 4.29383844e-01, 1.36722550e-01, 4.14278358e-02,
          4.06577110e-01, 2.46244699e-01, 1.41909495e-01, 4.06577110e-01,
          4.06577110e-01, 4.06577110e-01, 3.73040587e-01, 1.32569447e-01,
          3.11784804e-01, 1.25428468e-01, 9.01412219e-02, 4.25294876e-01,
          4.25294876e-01, 2.55885065e-01, 4.51435335e-02, 4.25294876e-01,
          4.25294876e-01, 4.25294876e-01, 7.99009949e-02, 4.09641951e-01,
          4.09641951e-01, 3.67797285e-01, 4.09641951e-01, 4.09641951e-01,
          4.09641951e-01, 1.23353668e-01, 0., 0., 3.73021252e-02,
          1.61414251e-01, 3.47312838e-01, 4.82028097e-01, 4.82028097e-01,
          4.82028097e-01, 3.87375832e-01, 0., 0., 2.35316589e-01,
          4.44284350e-01, 4.44284350e-01, 4.44284350e-01, 2.52705604e-01,
          4.44284350e-01, 2.86424279e-01, 6.88107535e-02 ]
      - [ 5.17692506e-01, 5.17692506e-01, 1.35274976e-01, 0.,
          2.09471807e-01, 3.55068624e-01, 5.06133288e-02, 0.,
          5.17692506e-01, 5.26205659e-01, 1.36084989e-01, 7.43089616e-02,
          2.38534495e-01, 5.26205659e-01, 2.35750511e-01, 5.70579097e-02,
          1.55865684e-01, 5.26205659e-01, 4.83407229e-01, 3.08052320e-02,
          1.12222783e-01, 1.38952672e-01, 1.66104674e-01, 0.,
          4.83407229e-01, 4.83407229e-01, 4.83407229e-01, 4.20733124e-01,
          4.20733124e-01, 4.20733124e-01, 3.61318514e-02, 2.84550190e-01,
          4.20733124e-01, 4.20733124e-01, 1.38328880e-01, 9.64690447e-02,
          2.69200861e-01, 2.19741717e-01, 4.37952846e-01, 4.37952846e-01,
          4.37952846e-01, 4.37952846e-01, 1.78059727e-01, 5.48887849e-02,
          2.70075768e-01, 6.58137053e-02, 1.68454662e-01, 4.09717888e-01,
          4.09717888e-01, 4.09717888e-01, 2.04582497e-01, 4.09717888e-01,
          4.09717888e-01, 2.86358058e-01, 3.66283022e-02, 1.89676970e-01,
          4.18727547e-01, 2.29063511e-01, 4.79380906e-01, 4.79380906e-01,
          4.79380906e-01, 2.01672837e-01, 0., 0., 2.93168485e-01,
          5.02141356e-01, 5.02141356e-01, 5.02141356e-01, 2.39503115e-01,
          2.96004087e-01, 8.72880220e-02, 0., 0., 1.00826673e-01,
          3.82182598e-01, 4.49241310e-01, 4.49241310e-01, 4.30684954e-01,
          4.49241310e-01, 2.19864160e-01, 0. ]
      - [ 5.61038911e-01, 5.61038911e-01, 0., 0., 2.10122183e-01,
          7.63785020e-02, 1.08873900e-02, 0., 5.61038911e-01,
          5.66581905e-01, 1.48048624e-01, 1.26363477e-03, 8.86478089e-03,
          5.66581905e-01, 9.54635292e-02, 1.36078689e-02, 0.,
          5.66581905e-01, 5.00289381e-01, 0., 2.04261690e-02,
          1.43295765e-01, 4.70358044e-01, 0., 4.41292189e-02,
          5.00289381e-01, 5.00289381e-01, 4.44403172e-01, 4.44403172e-01,
          1.80964783e-01, 3.73857804e-02, 4.44403172e-01, 4.44403172e-01,
          3.37160021e-01, 3.94848846e-02, 2.37070337e-01, 4.97403473e-01,
          5.99030890e-02, 4.72128717e-03, 3.31212580e-02, 4.97403473e-01,
          4.97403473e-01, 7.57952854e-02, 0., 4.92289424e-01,
          4.02016789e-01, 0., 2.02494651e-01, 4.37668324e-01,
          4.37668324e-01, 8.88708755e-02, 2.67874211e-01, 3.72412413e-01,
          4.37668324e-01, 5.50960675e-02, 2.12329060e-01, 3.94574106e-01,
          2.30011567e-01, 4.86076742e-01, 4.86076742e-01, 4.86076742e-01,
          1.72104776e-01, 0., 0., 0., 0., 0., 6.80212736e-01,
          6.80212736e-01, 2.60443360e-01, 0., 0., 0., 0., 2.73720443e-01,
          6.16964996e-01, 6.16964996e-01, 2.71236002e-01, 2.78668523e-01,
          8.00017118e-02, 0. ]
      - [ 5.52525163e-01, 5.52525163e-01, 0., 0., 1.86005324e-01,
          2.07738608e-01, 2.96121426e-02, 0., 5.52525163e-01,
          4.70887512e-01, 4.70887512e-01, 1.12445932e-02, 7.88842291e-02,
          4.70887512e-01, 3.16189528e-01, 4.50713113e-02, 0.,
          4.70887512e-01, 4.60036606e-01, 0., 6.04750775e-02,
          4.24250990e-01, 4.11263347e-01, 5.20176403e-02, 7.08113983e-02,
          4.60036606e-01, 4.60036606e-01, 4.52500731e-01, 4.52500731e-01,
          2.77171046e-01, 3.77217308e-02, 3.50560308e-01, 4.52500731e-01,
          3.80404085e-01, 3.98397036e-02, 1.83781654e-01, 3.99680167e-01,
          1.67892694e-01, 2.96686385e-02, 2.08134502e-01, 5.59164524e-01,
          5.59164524e-01, 2.18282789e-01, 0., 2.98841983e-01,
          1.46713302e-01, 9.16061923e-02, 4.26375777e-01, 4.26375777e-01,
          4.26375777e-01, 1.67993456e-01, 3.80672038e-01, 3.89470965e-01,
          3.09216350e-01, 1.25789735e-02, 1.56781912e-01, 4.40332443e-01,
          2.30225265e-01, 4.80931759e-01, 4.80931759e-01, 4.80931759e-01,
          1.72264680e-01, 0., 0., 0., 0., 0., 0., 9.10736740e-01,
          4.01835591e-01, 0., 0., 0., 1.87761083e-01, 5.17762065e-01,
          5.17762065e-01, 5.17762065e-01, 2.69264460e-01, 2.76642978e-01,
          7.94202089e-02, 0. ]
      - [ 5.37541986e-01, 5.37541986e-01, 1.30969146e-02, 0.,
          3.29154760e-01, 1.37403369e-01, 1.95861924e-02, 0.,
          5.37541986e-01, 5.52422106e-01, 0., 1.91022009e-02,
          1.34007722e-01, 5.52422106e-01, 2.82719750e-02, 4.03003488e-03,
          2.44610935e-01, 5.52422106e-01, 5.74602365e-01, 0.,
          5.01147378e-03, 3.51570100e-02, 4.99737896e-02, 0., 0.,
          5.74602365e-01, 5.74602365e-01, 4.10211772e-01, 4.10211772e-01,
          2.53063887e-01, 2.34268494e-02, 4.10211772e-01, 4.10211772e-01,
          4.10211772e-01, 9.48078930e-02, 2.84525692e-01, 4.78918523e-01,
          0., 1.59194648e-01, 4.78918523e-01, 4.78918523e-01,
          1.93711564e-01, 2.76126526e-02, 1.18891418e-01, 4.78918523e-01,
          2.79007822e-01, 0., 1.36233672e-01, 4.29096460e-01,
          4.29096460e-01, 1.49047345e-01, 3.74964684e-01, 4.29096460e-01,
          4.29096460e-01, 4.51299250e-02, 1.57520488e-01, 2.69355476e-01,
          1.55839369e-01, 5.08352757e-01, 5.08352757e-01, 5.08352757e-01,
          3.09786439e-01, 0., 0., 0., 3.28740299e-01, 6.44128680e-01,
          6.44128680e-01, 2.33637199e-01, 3.33038643e-02, 0., 0., 0., 0.,
          1.56417266e-01, 5.92511773e-01, 5.92511773e-01, 2.91068375e-01,
          3.87421250e-01, 1.76897258e-01, 3.69898528e-02 ]
      - [ 4.99284714e-01, 4.99284714e-01, 3.91340293e-02, 0.,
          2.33897567e-01, 4.87016648e-01, 9.93243530e-02, 9.96748637e-03,
          4.39378530e-01, 4.09231633e-01, 3.96703243e-01, 5.77569008e-02,
          3.87910336e-01, 4.09231633e-01, 4.09231633e-01, 8.86015370e-02,
          8.36411789e-02, 4.09231633e-01, 4.17820066e-01, 3.13366726e-02,
          1.80616066e-01, 4.78310257e-01, 2.71564305e-01, 5.17342463e-02,
          1.55818030e-01, 4.78310257e-01, 4.78310257e-01, 4.11146730e-01,
          4.28109467e-01, 4.28109467e-01, 2.30044592e-02, 1.89641491e-01,
          4.28109467e-01, 4.28109467e-01, 2.38058671e-01, 2.01474018e-02,
          6.73874244e-02, 1.02730125e-01, 2.46790633e-01, 5.06857336e-01,
          5.06857336e-01, 5.06857336e-01, 3.79918456e-01, 5.18117882e-02,
          3.46738547e-02, 0., 2.17667654e-01, 4.16383028e-01,
          4.16383028e-01, 4.16383028e-01, 1.58808112e-01, 4.16383028e-01,
          4.16383028e-01, 2.37417638e-01, 9.26901214e-03, 1.78412080e-01,
          4.40820187e-01, 2.26143941e-01, 4.40820187e-01, 4.40820187e-01,
          4.40820187e-01, 3.67762327e-01, 0., 0., 8.28788653e-02,
          2.48636603e-01, 0., 0., 6.54980898e-01, 6.54980898e-01,
          2.58402735e-01, 0., 0., 5.85304722e-02, 3.75212967e-01,
          5.60060084e-01, 5.60060084e-01, 3.13276827e-01, 3.39231640e-01,
          9.81918499e-02, 0. ]
      - [ 5.14808476e-01, 5.14808476e-01, 1.57197099e-02, 4.55146804e-02,
          3.35970998e-01, 2.85433322e-01, 4.06871513e-02, 3.81128676e-02,
          5.14808476e-01, 5.10515392e-01, 1.43592358e-01, 6.84877858e-02,
          2.34747544e-01, 3.54787230e-01, 5.36217466e-02, 6.21156767e-02,
          5.10515392e-01, 5.10515392e-01, 0., 7.37955468e-03,
          2.21386645e-02, 0., 0., 0., 5.75531185e-01, 5.75531185e-01,
          5.75531185e-01, 4.18328673e-01, 4.18328673e-01, 2.41459951e-01,
          2.11566061e-01, 4.18328673e-01, 4.18328673e-01, 4.18328673e-01,
          1.07418165e-01, 7.88987428e-02, 6.71649501e-02, 1.20185211e-01,
          3.90498787e-01, 3.90498787e-01, 3.90498787e-01, 2.92891026e-01,
          3.90498787e-01, 3.90498787e-01, 3.59042704e-01, 0.,
          1.39465025e-02, 7.87649974e-02, 2.59043455e-01, 4.67736095e-01,
          3.44222456e-01, 4.67736095e-01, 4.67736095e-01, 3.83413374e-01,
          0., 6.39791563e-02, 2.19558254e-01, 1.93768233e-01,
          5.46334803e-01, 5.46334803e-01, 5.35492241e-01, 1.44857049e-01,
          0., 0., 5.73672168e-02, 3.67755860e-01, 5.50342798e-01,
          5.50342798e-01, 3.29295546e-01, 3.61629218e-01, 1.04896575e-01,
          0., 0., 0., 4.85079326e-02, 3.40297848e-01, 5.13346374e-01,
          5.13346374e-01, 5.13346374e-01, 2.93502986e-01, 0. ]
      - [ 5.67998052e-01, 5.67998052e-01, 0., 0., 1.17420167e-01,
          1.11457989e-01, 1.58878025e-02, 0., 5.67998052e-01,
          4.60545868e-01, 4.60545868e-01, 6.44462928e-03, 4.52110283e-02,
          4.60545868e-01, 3.76853406e-01, 5.37186526e-02, 0.,
          4.60545868e-01, 4.25088376e-01, 5.21048084e-02, 3.40261534e-02,
          2.38703772e-01, 4.25088376e-01, 2.17856452e-01, 4.05758113e-01,
          4.25088376e-01, 4.25088376e-01, 4.34271872e-01, 4.34271872e-01,
          3.53609294e-01, 8.05791840e-02, 4.34271872e-01, 4.34271872e-01,
          2.09195659e-01, 0., 2.56901532e-01, 4.52187955e-01,
          2.92304635e-01, 1.13307135e-02, 7.94883966e-02, 5.26201189e-01,
          5.26201189e-01, 2.60929972e-01, 0., 2.76626647e-01,
          1.74926534e-01, 1.23472456e-02, 7.97031298e-02, 4.38178539e-01,
          4.38178539e-01, 4.38178539e-01, 4.38178539e-01, 3.31772208e-01,
          2.83626914e-01, 5.15609905e-02, 1.81439310e-01, 4.71071154e-01,
          2.87009567e-01, 5.37921906e-01, 5.37921906e-01, 2.74267614e-01,
          0., 2.87059937e-02, 0., 0., 0., 0., 5.32348037e-01,
          7.35806167e-01, 4.09695506e-01, 0., 0., 0., 0., 0., 0., 0., 0.,
          0., 0., 0. ]
      - [ 5.43982148e-01, 5.43982148e-01, 1.00584522e-01, 1.21688191e-02,
          2.86039144e-01, 1.20169953e-01, 1.71296522e-02, 0.,
          5.43982148e-01, 5.37434876e-01, 1.72860082e-02, 2.13521235e-02,
          1.49791613e-01, 3.94452065e-01, 5.03209084e-02, 5.33026829e-02,
          4.82495815e-01, 5.37434876e-01, 4.83519107e-01, 0.,
          3.55476467e-03, 2.49377508e-02, 0., 0., 5.03503144e-01,
          5.03503144e-01, 5.03503144e-01, 4.05860573e-01, 4.05860573e-01,
          4.05860573e-01, 1.70760348e-01, 4.05860573e-01, 4.05860573e-01,
          1.82161093e-01, 0., 3.31646949e-01, 3.52001667e-01,
          6.91828951e-02, 3.69628489e-01, 3.72317612e-01, 3.72317612e-01,
          2.90954679e-01, 3.44138801e-01, 3.34688365e-01, 3.72317612e-01,
          4.91427109e-02, 3.87878120e-02, 1.66467845e-01, 3.51497650e-01,
          4.53489542e-01, 2.48203024e-01, 4.63886559e-01, 4.63886559e-01,
          3.77552539e-01, 0., 9.95090082e-02, 3.43508214e-01,
          3.15556735e-01, 5.98451495e-01, 5.98451495e-01, 2.24187627e-01,
          0., 0., 0., 1.79311201e-01, 4.91141856e-01, 4.91141856e-01,
          4.91141856e-01, 3.23456049e-01, 3.52461785e-01, 1.02118224e-01,
          0., 0., 5.25652692e-02, 2.09121391e-01, 3.60766053e-01,
          4.79388088e-01, 4.79388088e-01, 4.79388088e-01, 3.59341115e-01,
          0. ]
      - [ 4.70246553e-01, 4.70246553e-01, 2.41586398e-02, 0.,
          3.35287064e-01, 4.63192344e-01, 6.60258457e-02, 0.,
          4.70246553e-01, 4.40690279e-01, 1.69430748e-01, 7.20897987e-02,
          3.93245190e-01, 4.40690279e-01, 3.45047772e-01, 4.91849072e-02,
          3.20860863e-01, 4.40690279e-01, 4.83575255e-01, 2.41305418e-02,
          1.20503925e-01, 3.37522388e-01, 2.11007342e-01, 0.,
          3.46534103e-01, 4.83575255e-01, 4.83575255e-01, 3.89751583e-01,
          4.35790747e-01, 2.44008705e-01, 3.70350070e-02, 4.35790747e-01,
          4.35790747e-01, 4.35790747e-01, 1.36335611e-01, 6.77288249e-02,
          1.54840708e-01, 1.37397423e-01, 4.74017382e-01, 4.74017382e-01,
          4.74017382e-01, 4.74017382e-01, 1.25179425e-01, 7.56417215e-02,
          1.79583624e-01, 3.10747363e-02, 1.67294890e-01, 4.00592476e-01,
          4.00592476e-01, 4.00592476e-01, 2.30124116e-01, 4.00592476e-01,
          4.00592476e-01, 3.34239691e-01, 1.75882112e-02, 1.28490403e-01,
          3.29103649e-01, 2.20870063e-01, 4.95768219e-01, 4.95768219e-01,
          4.95768219e-01, 2.89444476e-01, 0., 0., 2.32081741e-01,
          5.59924603e-01, 5.59924603e-01, 5.59924603e-01, 0., 0., 0., 0.,
          0., 1.09216623e-01, 4.09738421e-01, 4.76540715e-01,
          4.76540715e-01, 3.74134839e-01, 4.51298147e-01, 1.32655680e-01,
          0. ]
      - [ 5.59528768e-01, 5.59528768e-01, 2.57983170e-02, 0.,
          1.67149886e-01, 1.61434636e-01, 2.30117347e-02, 0.,
          5.59528768e-01, 4.44070011e-01, 4.44070011e-01, 8.02735612e-03,
          5.63143380e-02, 4.44070011e-01, 4.44070011e-01, 7.96101764e-02,
          0., 4.44070011e-01, 4.39826488e-01, 4.50746343e-02,
          8.83500949e-02, 4.39826488e-01, 4.39826488e-01, 1.33233726e-01,
          2.79477872e-02, 4.39826488e-01, 4.39826488e-01, 4.17555630e-01,
          4.17555630e-01, 4.08792883e-01, 1.08228162e-01, 4.17555630e-01,
          4.17555630e-01, 2.11692080e-01, 0., 2.73458689e-01,
          3.60615492e-01, 2.86011606e-01, 9.61560663e-03, 6.74563944e-02,
          5.68862736e-01, 5.68862736e-01, 3.08160245e-01, 0.,
          1.88833833e-01, 8.91823247e-02, 5.96920121e-03, 3.09899628e-01,
          5.37330031e-01, 5.37330031e-01, 3.10462832e-01, 9.89189595e-02,
          3.53190094e-01, 2.86783397e-01, 0., 1.30993068e-01,
          4.36001509e-01, 3.01814348e-01, 5.61373353e-01, 5.61373353e-01,
          2.56448150e-01, 0., 0., 0., 0., 0., 0., 6.41430140e-01,
          7.00754821e-01, 3.00856858e-01, 0., 0., 0., 0., 0., 0.,
          9.95024860e-01, 0., 0., 0., 0. ]
      - [ 5.74687660e-01, 5.74687660e-01, 0., 0., 5.88520393e-02, 0., 0.,
          0., 5.74687660e-01, 6.19510233e-01, 1.18499592e-01, 0., 0.,
          4.60637152e-01, 0., 0., 0., 6.19510233e-01, 4.91969883e-01, 0.,
          0., 0., 1.64161339e-01, 0., 4.91969883e-01, 4.91969883e-01,
          4.91969883e-01, 4.42847103e-01, 4.42847103e-01, 2.25320011e-01,
          8.61100480e-02, 4.42847103e-01, 4.42847103e-01, 1.59812525e-01,
          0., 3.56928468e-01, 4.90490735e-01, 7.18570277e-02,
          2.08546203e-02, 1.46301493e-01, 4.90490735e-01, 4.90490735e-01,
          7.59878382e-02, 0., 4.90490735e-01, 3.87335092e-01, 0.,
          5.96410558e-02, 3.87335092e-01, 3.87335092e-01, 3.03977937e-01,
          3.87335092e-01, 3.87335092e-01, 3.87335092e-01, 9.52822939e-02,
          2.71443039e-01, 3.78443152e-01, 2.80899286e-01, 5.59589922e-01,
          5.59589922e-01, 2.51488894e-01, 0., 0., 0., 0., 3.54263932e-02,
          2.48526871e-01, 6.62974775e-01, 6.62974775e-01, 2.26471841e-01,
          0., 0., 0., 0., 8.63870010e-02, 5.90165317e-01, 5.90165317e-01,
          4.40296441e-01, 2.99907595e-01, 7.90484771e-02, 0. ]
      - [ 4.50820416e-01, 2.39513725e-01, 3.42415422e-01, 8.90255719e-02,
          0., 0., 4.50820416e-01, 4.50820416e-01, 4.50820416e-01,
          4.98292297e-01, 4.98292297e-01, 4.98292297e-01, 0., 0., 0., 0.,
          4.29230370e-02, 4.98292297e-01, 4.61995512e-01, 3.21347028e-01,
          1.95862517e-01, 0., 0., 0., 4.61995512e-01, 4.61995512e-01,
          4.61995512e-01, 2.97358930e-01, 1.14281967e-01, 4.08017069e-01,
          4.08017069e-01, 4.08017069e-01, 0., 2.49101847e-01,
          4.08017069e-01, 4.08017069e-01, 4.44189847e-01, 4.44189847e-01,
          1.44539729e-01, 8.40294361e-03, 4.44189847e-01, 4.02811021e-01,
          5.74187785e-02, 1.40814349e-01, 4.44189847e-01, 3.98215562e-01,
          3.63492876e-01, 1.60860196e-01, 0., 2.51781195e-01,
          3.98215562e-01, 3.98215562e-01, 3.74596119e-01, 3.98215562e-01,
          1.73798174e-01, 2.62667686e-02, 2.53457308e-01, 6.30359352e-01,
          6.30359352e-01, 0., 0., 1.68269321e-01, 2.74862707e-01,
          3.65542412e-01, 1.36396036e-01, 3.05984891e-03, 2.14657672e-02,
          6.28982127e-01, 5.90129256e-01, 8.41200873e-02, 2.56556533e-02,
          2.99030513e-01, 7.84914270e-02, 7.44936690e-02, 0., 0.,
          6.23076558e-01, 6.23076558e-01, 4.51621622e-01, 2.27809567e-02,
          3.37497219e-02 ]
      - [ 5.06326377e-01, 2.00061724e-01, 2.78210491e-01, 1.22400478e-01,
          0., 0., 3.05673778e-01, 5.06326377e-01, 5.06326377e-01,
          5.44921100e-01, 5.44921100e-01, 5.44921100e-01, 0., 0., 0.,
          1.02240995e-01, 2.31736094e-01, 1.98963299e-01, 4.04828846e-01,
          4.04828846e-01, 4.04828846e-01, 0., 0., 1.12415835e-01,
          4.04828846e-01, 4.04828846e-01, 4.04828846e-01, 2.93196142e-01,
          4.09531556e-02, 3.14231575e-01, 4.68218952e-01, 3.25161874e-01,
          0., 2.13362515e-01, 4.68218952e-01, 4.68218952e-01,
          4.22922105e-01, 4.22922105e-01, 2.30068296e-01, 1.69701174e-01,
          4.22922105e-01, 1.37491181e-01, 2.87424102e-02, 4.22922105e-01,
          4.22922105e-01, 4.19835895e-01, 4.19835895e-01, 4.19835895e-01,
          0., 1.23321682e-01, 4.19835895e-01, 4.19835895e-01,
          2.88510233e-01, 1.26683146e-01, 1.00889571e-01, 0.,
          3.46240401e-01, 6.37502491e-01, 6.37502491e-01, 0., 0.,
          1.33801699e-01, 1.81252450e-01, 3.33115578e-01, 9.32095498e-02,
          7.62066096e-02, 5.07315516e-01, 5.81077397e-01, 3.66067290e-01,
          5.21811396e-02, 1.20149218e-01, 3.50074947e-01, 1.61006391e-01,
          1.49192527e-01, 2.77838260e-02, 0., 5.67366958e-01,
          5.67366958e-01, 5.37298918e-01, 7.70787746e-02, 8.33025277e-02 ]
      - [ 5.55891573e-01, 1.67342991e-01, 1.80345833e-01, 5.36708869e-02,
          6.31960556e-02, 0., 0., 5.55891573e-01, 5.55891573e-01,
          4.99005884e-01, 4.97991472e-01, 0., 0., 0., 0., 0.,
          4.99005884e-01, 4.99005884e-01, 4.53989655e-01, 4.53989655e-01,
          0., 0., 7.14384243e-02, 7.19751269e-02, 4.53989655e-01,
          4.00942534e-01, 4.53989655e-01, 4.46744263e-01, 9.10352021e-02,
          2.77243137e-01, 4.46744263e-01, 4.46744263e-01, 0., 0.,
          3.34760487e-01, 4.46744263e-01, 4.72188085e-01, 2.30468541e-01,
          5.39561659e-02, 3.78518850e-01, 4.72188085e-01, 1.40803829e-01,
          2.00709123e-02, 3.26904804e-01, 4.72188085e-01, 4.10237074e-01,
          4.10237074e-01, 0., 0., 4.10237074e-01, 4.10237074e-01,
          4.10237074e-01, 2.12619126e-01, 3.30488414e-01, 0., 0.,
          1.82050273e-01, 6.92799330e-01, 6.92799330e-01, 0., 0., 0., 0.,
          2.89726648e-02, 0., 8.92445892e-02, 6.26077890e-01,
          7.35120952e-01, 2.22786978e-01, 3.17572132e-02, 0.,
          2.89726648e-02, 1.98007766e-02, 0., 0., 0., 6.75216913e-01,
          6.75216913e-01, 2.83970654e-01, 0., 1.98007766e-02 ]
      - [ 4.83455271e-01, 2.99226373e-01, 3.73141825e-01, 2.55368561e-01,
          0., 0., 0., 4.83455271e-01, 4.83455271e-01, 4.98753130e-01,
          4.98753130e-01, 0., 0., 0., 0., 0., 4.98753130e-01,
          4.98753130e-01, 5.04710019e-01, 5.04710019e-01, 0., 0.,
          7.27613419e-02, 2.24792853e-01, 3.25911313e-01, 2.62142330e-01,
          5.04710019e-01, 3.65937233e-01, 9.79676023e-02, 3.87853771e-01,
          4.18890566e-01, 4.18890566e-01, 0., 0., 4.18890566e-01,
          4.18890566e-01, 4.82113600e-01, 3.54001373e-01, 1.98026337e-02,
          1.38921469e-01, 4.82113600e-01, 1.38811335e-01, 1.97868925e-02,
          3.64987075e-01, 4.82113600e-01, 4.28145558e-01, 4.28145558e-01,
          0., 0., 4.28145558e-01, 4.28145558e-01, 3.77269357e-01,
          8.95944312e-02, 3.34857076e-01, 2.60933638e-02, 0.,
          2.53858685e-01, 6.80953741e-01, 6.80953741e-01, 0., 0., 0.,
          2.60933638e-02, 1.77179232e-01, 0., 3.39398943e-02,
          2.38098651e-01, 9.04524267e-01, 2.26150677e-01, 3.22366916e-02,
          0., 1.77179232e-01, 3.69390212e-02, 0., 0., 0., 6.74562097e-01,
          6.74562097e-01, 2.83670038e-01, 0., 3.69390212e-02 ]
      - [ 5.33492267e-01, 2.49390900e-01, 2.68768966e-01, 7.99856037e-02,
          0., 0., 0., 5.33492267e-01, 5.33492267e-01, 5.29201925e-01,
          5.29201925e-01, 0., 0., 0., 0., 0., 3.93129647e-01,
          5.29201925e-01, 5.22227943e-01, 5.22227943e-01, 0., 0.,
          9.15224105e-02, 8.43391046e-02, 2.98761964e-01, 2.68086135e-01,
          5.22227943e-01, 4.22086298e-01, 8.84324312e-02, 3.11735749e-01,
          4.22086298e-01, 4.22086298e-01, 0., 0., 4.22086298e-01,
          4.22086298e-01, 4.72913951e-01, 4.72913951e-01, 1.06801186e-02,
          7.49242753e-02, 4.72913951e-01, 1.14730790e-01, 1.63543243e-02,
          2.85530835e-01, 4.72913951e-01, 4.07037497e-01, 4.07037497e-01,
          0., 0., 4.07037497e-01, 4.07037497e-01, 3.92217368e-01,
          1.17054366e-01, 4.07037497e-01, 9.53313187e-02, 0.,
          2.58225590e-01, 6.69399738e-01, 6.69399738e-01, 0., 0.,
          6.17812872e-02, 1.32437900e-01, 3.32964420e-01, 6.89626858e-02,
          2.04907600e-02, 1.43748909e-01, 8.39302480e-01, 2.17189535e-01,
          3.09593286e-02, 4.25453708e-02, 3.17097932e-01, 8.99761170e-02,
          3.30548398e-02, 0., 0., 6.62326992e-01, 6.62326992e-01,
          3.19261730e-01, 0., 7.01230094e-02 ]
      - [ 5.23806274e-01, 2.52139479e-01, 3.25143248e-01, 4.85536046e-02,
          0., 0., 0., 5.23806274e-01, 5.23806274e-01, 5.71805060e-01,
          5.71805060e-01, 0., 0., 0., 2.20426992e-02, 3.14208097e-03,
          1.13628417e-01, 5.71805060e-01, 4.28095549e-01, 4.28095549e-01,
          0., 0., 1.46450594e-01, 2.40721762e-01, 4.28095549e-01,
          4.28095549e-01, 4.28095549e-01, 4.22642767e-01, 9.16884616e-02,
          3.06980193e-01, 4.22642767e-01, 4.22642767e-01, 0., 0.,
          4.22642767e-01, 4.22642767e-01, 4.28784609e-01, 4.28784609e-01,
          3.58431526e-02, 2.51450568e-01, 4.28784609e-01, 4.28784609e-01,
          8.81237835e-02, 6.44800067e-02, 4.28784609e-01, 4.01934028e-01,
          3.60710710e-01, 0., 0., 4.52232331e-01, 4.52232331e-01,
          4.52232331e-01, 2.07973108e-01, 2.16851607e-01, 0., 0.,
          1.45126507e-01, 6.97129488e-01, 6.97129488e-01, 0., 0., 0., 0.,
          0., 0., 6.58546314e-02, 4.61990178e-01, 6.18314803e-01,
          6.18314803e-01, 1.06903307e-01, 0., 0., 0., 0., 0., 0.,
          6.66361213e-01, 6.66361213e-01, 3.24458033e-01, 0., 0. ]
      - [ 4.74102736e-01, 3.38668346e-01, 4.49647039e-01, 6.37614205e-02,
          0., 0., 0., 4.74102736e-01, 4.74102736e-01, 4.98753130e-01,
          4.98753130e-01, 0., 0., 0., 0., 0., 4.98753130e-01,
          4.98753130e-01, 4.46215838e-01, 4.46215838e-01, 0., 0., 0., 0.,
          4.46215838e-01, 4.46215838e-01, 4.46215838e-01, 2.90309906e-01,
          1.45853952e-01, 4.21955407e-01, 4.21955407e-01, 4.21955407e-01,
          0., 0., 4.21955407e-01, 4.21955407e-01, 4.40508813e-01,
          4.40508813e-01, 1.96759179e-02, 1.38032511e-01, 4.40508813e-01,
          7.61698559e-02, 1.08576482e-02, 4.40508813e-01, 4.40508813e-01,
          4.03016537e-01, 4.03016537e-01, 0., 0., 3.62387061e-01,
          4.03016537e-01, 4.03016537e-01, 3.26101989e-01, 3.29572111e-01,
          5.45907952e-02, 0., 2.99697369e-01, 6.68727517e-01,
          6.68727517e-01, 0., 0., 2.97290757e-02, 7.24464357e-02,
          2.76905894e-01, 5.56108616e-02, 3.77210379e-02, 2.64624506e-01,
          8.53871346e-01, 1.44505054e-01, 2.05985010e-02, 7.69465417e-02,
          2.89720416e-01, 8.02713335e-02, 5.09953462e-02, 0., 0.,
          6.51269674e-01, 6.51269674e-01, 3.65285844e-01, 1.58555750e-02,
          4.96429801e-02 ]
      - [ 4.95678037e-01, 3.26959312e-01, 3.88660252e-01, 0., 0., 0., 0.,
          4.95678037e-01, 4.95678037e-01, 5.57269990e-01, 5.57269990e-01,
          0., 0., 0., 0., 0., 2.50570774e-01, 5.57269990e-01,
          4.29364204e-01, 4.29364204e-01, 0., 0., 0., 3.10944408e-01,
          4.29364204e-01, 4.02007490e-01, 4.29364204e-01, 4.00237888e-01,
          1.86706483e-01, 4.00237888e-01, 4.00237888e-01, 4.00237888e-01,
          0., 0., 4.00237888e-01, 4.00237888e-01, 4.33353007e-01,
          4.33353007e-01, 2.26147808e-02, 1.58649549e-01, 4.33353007e-01,
          4.33353007e-01, 6.67019039e-02, 1.62992895e-01, 4.33353007e-01,
          4.62462336e-01, 4.19168651e-01, 0., 0., 2.62993187e-01,
          4.62462336e-01, 4.62462336e-01, 1.78961381e-01, 2.77256936e-01,
          5.71395122e-02, 9.18087456e-03, 2.74670720e-01, 6.74982727e-01,
          6.74982727e-01, 0., 0., 0., 5.71395122e-02, 1.14732817e-01, 0.,
          4.90492545e-02, 3.44095349e-01, 6.46648467e-01, 6.46648467e-01,
          1.00502767e-01, 0., 1.14732817e-01, 1.91307161e-02, 0., 0., 0.,
          6.53690398e-01, 6.53690398e-01, 3.71644527e-01, 0.,
          1.91307161e-02 ]
      - [ 4.38142449e-01, 2.79191941e-01, 3.87040019e-01, 0., 0., 0.,
          4.38142449e-01, 4.38142449e-01, 4.38142449e-01, 5.56321681e-01,
          5.56321681e-01, 5.56321681e-01, 0., 0., 1.76265374e-01,
          6.13237917e-02, 1.20660039e-02, 1.76032722e-01, 3.77251565e-01,
          3.77251565e-01, 3.77251565e-01, 0., 0., 3.77251565e-01,
          3.77251565e-01, 3.77251565e-01, 3.77251565e-01, 3.79301310e-01,
          2.20493838e-01, 3.14251602e-01, 3.61148268e-01, 3.79301310e-01,
          0., 3.78064871e-01, 3.79301310e-01, 3.79301310e-01,
          4.46221501e-01, 4.46221501e-01, 2.89321970e-02, 0.,
          4.46221501e-01, 4.46221501e-01, 1.93876073e-01, 1.62860788e-02,
          4.00497109e-01, 2.07897320e-01, 3.72885644e-01, 8.02275687e-02,
          0., 1.10151349e-02, 6.23983562e-01, 6.23983562e-01,
          1.61975890e-01, 0., 2.29995608e-01, 4.60331067e-02,
          1.43185392e-01, 5.59566438e-01, 7.26237774e-01, 0., 0.,
          8.22491497e-02, 2.64444709e-01, 1.79069191e-01, 7.19509572e-02,
          0., 0., 6.70013070e-01, 6.70013070e-01, 1.97773919e-01,
          3.93029395e-03, 1.38215274e-01, 0., 0., 0., 0., 3.43445361e-01,
          7.94864118e-01, 4.92243350e-01, 0., 0. ]
      - [ 4.34518397e-01, 3.47808719e-01, 4.34518397e-01, 6.54822886e-02,
          0., 0., 3.39375556e-01, 4.34518397e-01, 4.34518397e-01, 0.,
          1.29793108e-01, 3.89379323e-01, 0., 0., 0., 5.24816215e-01,
          5.24816215e-01, 5.24816215e-01, 4.33547586e-01, 4.33547586e-01,
          4.06197488e-01, 0., 0., 0., 3.94726276e-01, 3.33126754e-01,
          4.33547586e-01, 2.19008461e-01, 2.11993977e-01, 4.22848672e-01,
          4.22848672e-01, 9.41532925e-02, 0., 4.22848672e-01,
          4.22848672e-01, 4.22848672e-01, 4.56192642e-01, 3.95820826e-01,
          8.92286450e-02, 1.96687385e-01, 3.80996197e-01, 2.05141827e-02,
          1.49021521e-01, 4.56192642e-01, 4.56192642e-01, 4.02430385e-01,
          4.02430385e-01, 4.02430385e-01, 0., 1.14891618e-01,
          4.02430385e-01, 4.02430385e-01, 2.91235209e-01, 2.97002614e-01,
          9.27683562e-02, 4.29386869e-02, 4.84843165e-01, 5.81351399e-01,
          5.81351399e-01, 0., 2.54297592e-02, 1.82263449e-01,
          1.97146818e-01, 4.04416680e-01, 8.81272182e-02, 8.81036520e-02,
          5.34704387e-01, 5.34704387e-01, 9.78951156e-02, 1.58513822e-02,
          1.69577092e-01, 4.52956796e-01, 2.72918880e-01, 2.64062405e-01,
          1.96096599e-02, 0., 5.57931781e-01, 5.57931781e-01,
          4.52518076e-01, 7.63127953e-02, 1.29067019e-01 ]
      - [ 4.91645098e-01, 2.86731452e-01, 3.57560366e-01, 2.44705006e-01,
          0., 0., 0., 4.91645098e-01, 4.91645098e-01, 5.47231376e-01,
          2.81238377e-01, 1.30589589e-01, 0., 0., 0., 0., 5.47231376e-01,
          5.47231376e-01, 4.70688641e-01, 4.70688641e-01, 1.65018067e-01,
          0., 0., 6.22552149e-02, 4.36711371e-01, 3.29896688e-01,
          4.70688641e-01, 3.73361140e-01, 9.76072177e-02, 3.95656615e-01,
          4.15445566e-01, 4.15445566e-01, 0., 0., 4.15445566e-01,
          4.15445566e-01, 4.40561265e-01, 2.61608928e-01, 1.01684377e-01,
          3.74304801e-01, 4.40561265e-01, 1.82327069e-02, 2.59898510e-03,
          4.40561265e-01, 4.40561265e-01, 3.96038979e-01, 3.96038979e-01,
          2.28181705e-01, 0., 3.96038979e-01, 3.96038979e-01,
          3.96038979e-01, 1.62662417e-01, 3.65079790e-01, 9.36459843e-03,
          0., 3.31905186e-01, 6.64465904e-01, 6.64465904e-01, 0., 0., 0.,
          9.36459843e-03, 1.69285387e-01, 3.85867767e-02, 8.56276527e-02,
          6.00703955e-01, 7.40438402e-01, 4.11077105e-02, 5.85970702e-03,
          8.05455521e-02, 1.94486365e-01, 1.29988775e-01, 6.27134144e-02,
          0., 0., 6.67203665e-01, 6.67203665e-01, 2.68074512e-01,
          1.38723059e-02, 1.00654289e-01 ]
      - [ 4.12116259e-01, 3.60575557e-01, 4.12116259e-01, 1.29109725e-01,
          0., 0., 4.12116259e-01, 4.12116259e-01, 4.12116259e-01,
          4.08969700e-01, 4.08969700e-01, 4.08969700e-01, 0., 0., 0.,
          3.99541408e-01, 4.08969700e-01, 4.08969700e-01, 4.07416642e-01,
          4.07416642e-01, 4.07416642e-01, 0., 0., 0., 4.07416642e-01,
          4.07416642e-01, 4.07416642e-01, 1.01303890e-01, 2.33802840e-01,
          4.41748381e-01, 4.41748381e-01, 2.41744995e-01, 0.,
          3.02743971e-01, 4.41748381e-01, 4.41748381e-01, 4.09430414e-01,
          4.09430414e-01, 3.72386336e-01, 1.22753225e-01, 4.09430414e-01,
          4.65325229e-02, 4.28749882e-02, 4.09430414e-01, 4.09430414e-01,
          3.93117517e-01, 3.93117517e-01, 3.93117517e-01, 0.,
          1.23674005e-01, 3.93117517e-01, 3.93117517e-01, 3.93117517e-01,
          2.31363565e-01, 5.15782721e-02, 1.00593545e-01, 5.52349627e-01,
          5.52349627e-01, 5.52349627e-01, 0., 0., 1.94916517e-01,
          1.68647453e-01, 4.55985516e-01, 7.83133954e-02, 6.02421612e-02,
          2.77329743e-01, 6.46977901e-01, 1.25468373e-01, 1.78849138e-02,
          1.37151092e-01, 4.95470405e-01, 2.10191280e-01, 1.77774921e-01,
          8.21649656e-02, 0., 5.41781306e-01, 5.41781306e-01,
          5.41781306e-01, 1.30786538e-01, 1.19867466e-01 ]
      - [ 4.50134248e-01, 2.22436681e-01, 3.21058393e-01, 1.87647447e-01,
          0., 0., 4.47071642e-01, 4.50134248e-01, 4.50134248e-01,
          4.78422970e-01, 4.78422970e-01, 2.68686563e-01, 0., 0., 0.,
          8.64572376e-02, 4.78422970e-01, 4.78422970e-01, 4.50096428e-01,
          4.50096428e-01, 2.55604982e-01, 0., 0., 3.75371367e-01,
          3.45821887e-01, 2.48824000e-01, 4.50096428e-01, 3.14583480e-01,
          8.78956914e-02, 4.12421435e-01, 4.21023458e-01, 4.21023458e-01,
          0., 9.98564288e-02, 4.21023458e-01, 4.21023458e-01,
          5.10491669e-01, 3.63177150e-01, 3.49664688e-02, 5.91708943e-02,
          5.10491669e-01, 6.71921223e-02, 1.26028173e-02, 2.67957717e-01,
          5.10491669e-01, 4.18632269e-01, 4.18632269e-01, 1.40995532e-01,
          0., 4.18632269e-01, 4.18632269e-01, 4.18632269e-01,
          1.56619772e-01, 2.74123490e-01, 4.19674367e-02, 0.,
          2.36722648e-01, 6.83234632e-01, 6.83234632e-01, 0., 0., 0.,
          4.19674367e-02, 1.94235533e-01, 0., 1.22876167e-02,
          8.62013549e-02, 9.45375443e-01, 1.16286233e-01, 1.65760461e-02,
          0., 1.94235533e-01, 2.88852435e-02, 0., 0., 0., 6.30693972e-01,
          6.30693972e-01, 4.35481906e-01, 8.27051252e-02, 2.88852435e-02 ]
      - [ 4.18182909e-01, 3.45774740e-01, 4.18182909e-01, 4.33321148e-02,
          0., 0., 4.18182909e-01, 4.18182909e-01, 4.18182909e-01,
          4.96660799e-01, 4.96660799e-01, 0., 0., 0., 0., 9.13878828e-02,
          4.96660799e-01, 4.96660799e-01, 4.55884904e-01, 4.55884904e-01,
          0., 0., 0., 7.34044388e-02, 4.55884904e-01, 3.98414344e-01,
          4.55884904e-01, 3.27668607e-01, 1.47306263e-01, 4.13875818e-01,
          4.13875818e-01, 4.13875818e-01, 0., 1.01655029e-01,
          4.13875818e-01, 4.13875818e-01, 5.01121759e-01, 2.95425117e-01,
          1.78849101e-02, 1.25468060e-01, 5.01121759e-01, 2.39769071e-02,
          6.41380996e-03, 3.71041685e-01, 5.01121759e-01, 4.17617619e-01,
          4.17617619e-01, 0., 0., 4.17617619e-01, 4.17617619e-01,
          4.17617619e-01, 1.93349153e-01, 2.93976098e-01, 2.42562871e-02,
          0., 2.52259701e-01, 6.81317389e-01, 6.81317389e-01, 0., 0., 0.,
          2.42562871e-02, 1.92331642e-01, 0., 2.45054495e-02,
          1.71913162e-01, 9.40577328e-01, 4.19196635e-02, 5.97544713e-03,
          0., 1.92331642e-01, 5.02598658e-02, 0., 0., 0., 6.82190835e-01,
          6.82190835e-01, 2.39518330e-01, 0., 5.02598658e-02 ]
      - [ 4.12830979e-01, 3.79115790e-01, 4.12830979e-01, 0., 0., 0.,
          4.12830979e-01, 4.12830979e-01, 4.12830979e-01, 4.21790808e-01,
          4.21790808e-01, 3.25959057e-01, 0., 0., 0., 4.21790808e-01,
          4.21790808e-01, 4.21790808e-01, 4.45541859e-01, 4.45541859e-01,
          9.17668641e-02, 0., 0., 0., 4.45541859e-01, 4.39429343e-01,
          4.45541859e-01, 2.23361135e-01, 1.92914099e-01, 4.33930606e-01,
          4.33930606e-01, 1.63414672e-01, 0., 3.58708799e-01,
          4.33930606e-01, 4.33930606e-01, 4.34204012e-01, 4.34204012e-01,
          1.52648181e-01, 1.06124252e-01, 4.34204012e-01, 1.30792022e-01,
          3.64220291e-02, 4.34204012e-01, 4.34204012e-01, 3.97993475e-01,
          3.97993475e-01, 2.26169914e-01, 0., 8.62804651e-02,
          3.97993475e-01, 3.97993475e-01, 3.81356478e-01, 3.97993475e-01,
          1.02349490e-01, 4.25884221e-03, 3.67038757e-01, 6.09031618e-01,
          6.09031618e-01, 0., 0., 2.24787459e-01, 2.37359509e-01,
          4.62213129e-01, 1.24080941e-01, 3.84593830e-02, 2.43732944e-01,
          6.37250841e-01, 2.61513591e-01, 3.72775123e-02, 1.21737443e-01,
          4.61549729e-01, 1.85093582e-01, 1.94833070e-01, 2.62741745e-02,
          0., 5.89865923e-01, 5.89865923e-01, 4.67779517e-01,
          3.34800109e-02, 7.33349025e-02 ]
      - [ 5.30297697e-01, 5.30297697e-01, 5.30297697e-01, 0., 0., 0., 0.,
          0., 3.88660669e-01, 4.07416642e-01, 4.07416642e-01,
          4.07416642e-01, 0., 0., 0., 4.07416642e-01, 4.07416642e-01,
          4.07416642e-01, 4.98753130e-01, 0., 0., 0., 0., 0.,
          4.98753130e-01, 4.98753130e-01, 4.98753130e-01, 3.05427551e-01,
          4.96820033e-01, 4.96820033e-01, 4.96820033e-01, 3.81135195e-01,
          0., 0., 0., 1.26481339e-01, 3.36401939e-01, 3.36401939e-01,
          3.36401939e-01, 3.31798434e-01, 3.36401939e-01, 3.07220876e-01,
          3.36401939e-01, 3.36401939e-01, 3.36401939e-01, 2.39560917e-01,
          0., 0., 0., 4.42676783e-01, 4.42676783e-01, 4.42676783e-01,
          4.42676783e-01, 3.92858595e-01, 0., 1.63687930e-01,
          5.56125343e-01, 4.56426740e-01, 6.70012534e-01, 0., 0., 0., 0.,
          0., 7.96433538e-02, 3.07543188e-01, 4.81341898e-01,
          6.13973260e-01, 4.45687026e-01, 2.83346206e-01, 7.32718855e-02,
          0., 0., 0., 0., 0., 6.90548241e-01, 4.47878420e-01,
          5.39040148e-01, 1.58399075e-01, 0. ]
      - [ 4.98753130e-01, 4.98753130e-01, 4.98753130e-01, 0., 0., 0., 0.,
          0., 4.98753130e-01, 4.59932178e-01, 3.49050194e-01,
          3.44909638e-01, 0., 0., 0., 4.12238359e-01, 4.01984632e-01,
          4.59932178e-01, 4.98753130e-01, 0., 0., 0., 0., 0.,
          4.98753130e-01, 4.98753130e-01, 4.98753130e-01, 3.61545771e-01,
          4.77278322e-01, 4.77278322e-01, 3.61655354e-01, 4.77278322e-01,
          0., 0., 0., 2.24363849e-01, 3.59508961e-01, 3.51193488e-01,
          3.59508961e-01, 2.07002968e-01, 3.59508961e-01, 2.33967528e-01,
          3.59508961e-01, 3.59508961e-01, 3.59508961e-01, 2.05678731e-01,
          0., 0., 0., 4.89436388e-01, 3.46981674e-01, 4.89436388e-01,
          4.89436388e-01, 3.37294817e-01, 0., 3.27086627e-01,
          5.43930888e-01, 5.43930888e-01, 5.43930888e-01, 0., 0., 0., 0.,
          0., 1.10142730e-01, 3.77296269e-01, 3.28794032e-01,
          6.12279832e-01, 3.71623307e-01, 4.48268622e-01, 1.31765172e-01,
          0., 0., 0., 0., 0., 5.72319746e-01, 4.90075529e-01,
          5.72319746e-01, 3.14660251e-01, 0. ]
      - [ 5.30297697e-01, 5.30297697e-01, 5.30297697e-01, 0., 0., 0., 0.,
          0., 3.88660669e-01, 4.51736271e-01, 4.33284938e-01,
          4.45640683e-01, 0., 0., 0., 3.14591438e-01, 3.19464117e-01,
          4.51736271e-01, 4.98753130e-01, 0., 0., 0., 0., 0.,
          4.98753130e-01, 4.98753130e-01, 4.98753130e-01, 2.67440945e-01,
          5.77067792e-01, 5.77067792e-01, 4.13085759e-01, 2.71648735e-01,
          0., 0., 0., 1.10750608e-01, 3.62330467e-01, 3.62330467e-01,
          3.62330467e-01, 2.55607784e-01, 3.62330467e-01, 1.92645729e-01,
          3.62330467e-01, 3.25932741e-01, 3.62330467e-01, 2.78038383e-01,
          0., 0., 0., 4.59683269e-01, 3.42946172e-01, 4.59683269e-01,
          4.59683269e-01, 4.08123732e-01, 0., 3.32881331e-01,
          5.57240665e-01, 5.12436450e-01, 5.57240665e-01, 0., 0., 0., 0.,
          0., 1.42504781e-01, 4.84546483e-01, 4.00097460e-01,
          5.99308431e-01, 3.01544309e-01, 3.44452292e-01, 1.00489512e-01,
          0., 0., 0., 0., 0., 5.59492290e-01, 5.21697700e-01,
          5.59492290e-01, 3.10131162e-01, 0. ]
      - [ 4.98753130e-01, 4.98753130e-01, 4.98753130e-01, 0., 0., 0., 0.,
          0., 4.98753130e-01, 4.13466990e-01, 3.97349596e-01,
          3.92636091e-01, 0., 0., 0., 4.13466990e-01, 4.13466990e-01,
          4.13466990e-01, 3.15484643e-01, 0., 0., 0., 0., 0.,
          5.57406783e-01, 5.57406783e-01, 5.22971034e-01, 4.21238720e-01,
          4.32983547e-01, 4.32983547e-01, 4.32983547e-01, 4.32983547e-01,
          0., 0., 0., 2.61407405e-01, 3.39795321e-01, 3.30102563e-01,
          3.39795321e-01, 2.81799734e-01, 3.39795321e-01, 3.39795321e-01,
          3.39795321e-01, 3.39795321e-01, 3.39795321e-01, 1.17885806e-01,
          0., 0., 0., 3.55233759e-01, 4.94658947e-01, 5.14320016e-01,
          5.14320016e-01, 2.84671277e-01, 0., 1.65167511e-01,
          5.67735970e-01, 5.06739438e-01, 6.22411728e-01, 0., 0., 0., 0.,
          0., 6.12992607e-02, 2.41568312e-01, 4.04576391e-01,
          6.10046804e-01, 5.14433861e-01, 3.50406259e-01, 9.23587233e-02,
          0., 0., 0., 0., 0., 6.73531950e-01, 4.32713211e-01,
          5.66830158e-01, 1.68382987e-01, 0. ]
      - [ 4.98753130e-01, 4.98753130e-01, 4.98753130e-01, 0., 0., 0., 0.,
          0., 4.98753130e-01, 4.64706868e-01, 2.66781300e-01,
          3.17125976e-01, 0., 0., 0., 4.64706868e-01, 4.19237167e-01,
          4.64706868e-01, 4.98753130e-01, 0., 0., 0., 0., 0.,
          4.98753130e-01, 4.98753130e-01, 4.98753130e-01, 3.06557447e-01,
          4.97470468e-01, 4.97470468e-01, 3.38215232e-01, 4.97470468e-01,
          0., 0., 0., 2.10318357e-01, 3.78198832e-01, 2.58850336e-01,
          3.78198832e-01, 1.47361949e-01, 3.78198832e-01, 2.22028196e-01,
          3.78198832e-01, 3.78198832e-01, 3.78198832e-01, 1.38641313e-01,
          0., 0., 0., 4.69740629e-01, 3.31207752e-01, 5.43488801e-01,
          5.43488801e-01, 2.32886478e-01, 0., 3.01760644e-01,
          5.51795900e-01, 5.42653561e-01, 5.51795900e-01, 0., 0., 0., 0.,
          0., 7.65414536e-02, 2.64223516e-01, 2.42723480e-01,
          7.16315389e-01, 3.65708053e-01, 4.41133350e-01, 1.29667819e-01,
          0., 0., 0., 0., 0., 5.72319746e-01, 4.90075529e-01,
          5.72319746e-01, 3.14660251e-01, 0. ]
      - [ 4.98753130e-01, 4.98753130e-01, 4.98753130e-01, 0., 0., 0., 0.,
          0., 4.98753130e-01, 4.60880578e-01, 2.76899844e-01,
          2.62829423e-01, 0., 0., 0., 4.60880578e-01, 4.60880578e-01,
          4.60880578e-01, 3.15484643e-01, 0., 0., 0., 0., 0.,
          5.57406783e-01, 5.57406783e-01, 5.22971034e-01, 4.35080081e-01,
          4.44859713e-01, 4.44859713e-01, 3.47142518e-01, 4.44859713e-01,
          0., 0., 0., 3.03403080e-01, 3.68660182e-01, 2.72609532e-01,
          3.68660182e-01, 1.65854186e-01, 3.68660182e-01, 2.81124890e-01,
          3.68660182e-01, 3.68660182e-01, 3.68660182e-01, 1.03803918e-01,
          0., 0., 0., 2.54609972e-01, 3.87175649e-01, 5.94023824e-01,
          5.94023824e-01, 2.50666261e-01, 0., 3.01760644e-01,
          5.51795900e-01, 5.42653561e-01, 5.51795900e-01, 0., 0., 0., 0.,
          0., 7.99170434e-02, 2.75876135e-01, 2.53427923e-01,
          5.80167115e-01, 4.29563403e-01, 5.47781646e-01, 1.62183151e-01,
          0., 0., 0., 0., 0., 5.91800153e-01, 4.18333441e-01,
          6.19535387e-01, 2.91135639e-01, 0. ]
      - [ 4.98753130e-01, 4.98753130e-01, 4.98753130e-01, 0., 0., 0., 0.,
          0., 4.98753130e-01, 4.14888769e-01, 3.67684573e-01,
          4.14888769e-01, 0., 0., 0., 4.14888769e-01, 4.14888769e-01,
          4.14888769e-01, 4.98753130e-01, 0., 0., 0., 0., 0.,
          4.98753130e-01, 4.98753130e-01, 4.98753130e-01, 2.82977283e-01,
          4.80225652e-01, 4.80225652e-01, 4.40253526e-01, 4.80225652e-01,
          0., 0., 0., 1.71621948e-01, 3.61447096e-01, 3.02258968e-01,
          3.61447096e-01, 2.36252949e-01, 3.61447096e-01, 2.67027706e-01,
          3.61447096e-01, 3.53113204e-01, 3.61447096e-01, 1.56846732e-01,
          0., 0., 0., 4.91049260e-01, 4.21534747e-01, 4.91049260e-01,
          4.91049260e-01, 2.63467550e-01, 0., 1.65167511e-01,
          5.67735970e-01, 5.06739438e-01, 6.22411728e-01, 0., 0., 0., 0.,
          0., 5.55759333e-02, 2.19013810e-01, 3.66802275e-01,
          7.48953104e-01, 4.14582551e-01, 2.63571471e-01, 6.81582540e-02,
          0., 0., 0., 0., 0., 6.90548241e-01, 4.47878420e-01,
          5.39040148e-01, 1.58399075e-01, 0. ]
      - [ 4.98753130e-01, 4.98753130e-01, 4.98753130e-01, 0., 0., 0., 0.,
          0., 4.98753130e-01, 4.07416642e-01, 4.07416642e-01,
          4.07416642e-01, 0., 0., 0., 4.07416642e-01, 4.07416642e-01,
          4.07416642e-01, 4.98753130e-01, 0., 0., 0., 0., 0.,
          4.98753130e-01, 4.98753130e-01, 4.98753130e-01, 4.24107790e-01,
          4.24107790e-01, 4.24107790e-01, 3.10525745e-01, 4.24107790e-01,
          0., 0., 0., 4.24107790e-01, 3.74818176e-01, 3.28097612e-01,
          3.74818176e-01, 1.57281637e-01, 3.74818176e-01, 1.44699141e-01,
          3.74818176e-01, 3.74818176e-01, 3.74818176e-01, 4.15015459e-01,
          0., 0., 0., 4.15015459e-01, 3.66967261e-01, 4.15015459e-01,
          4.15015459e-01, 4.15015459e-01, 0., 5.28104424e-01,
          5.28104424e-01, 3.97546500e-01, 5.28104424e-01, 0., 0., 0., 0.,
          0., 4.21237230e-01, 4.21237230e-01, 2.63333410e-01,
          4.21237230e-01, 2.43643492e-01, 4.21237230e-01, 3.96638721e-01,
          0., 0., 0., 0., 0., 5.25639951e-01, 4.07257318e-01,
          5.25639951e-01, 5.25639951e-01, 0. ]
      - [ 4.42781031e-01, 4.42781031e-01, 4.42781031e-01, 3.76039520e-02,
          4.42781031e-01, 1.16667628e-01, 1.66304111e-02, 0.,
          4.42781031e-01, 3.96640360e-01, 3.96640360e-01, 3.96640360e-01,
          2.16295999e-02, 2.26154372e-01, 2.19670758e-02, 3.96640360e-01,
          3.96640360e-01, 3.96640360e-01, 4.36665773e-01, 1.96829587e-01,
          0., 0., 4.36665773e-01, 5.92555627e-02, 4.36665773e-01,
          4.36665773e-01, 4.36665773e-01, 4.34592158e-01, 2.85342962e-01,
          4.11511153e-01, 1.54813752e-01, 4.34592158e-01, 4.34592158e-01,
          6.84666485e-02, 0., 3.86821449e-01, 2.26777568e-01,
          4.16348934e-01, 4.16348934e-01, 1.73289850e-01, 4.16348934e-01,
          1.75993562e-01, 4.16348934e-01, 3.85964632e-01, 2.02620834e-01,
          2.89232820e-01, 5.93386069e-02, 0., 0., 5.64613342e-01,
          2.19792947e-01, 5.64613342e-01, 3.26468289e-01, 3.38700712e-01,
          0., 5.95867813e-01, 5.95867813e-01, 2.04797804e-01,
          4.91926163e-01, 0., 0., 0., 0., 0., 4.33505923e-01,
          4.33505923e-01, 1.73689947e-01, 4.33505923e-01, 1.60824105e-01,
          4.33505923e-01, 4.33505923e-01, 0., 0., 0., 0., 0.,
          3.05247694e-01, 2.28993312e-01, 6.51108861e-01, 6.51108861e-01,
          0. ]
      - [ 4.98753130e-01, 4.98753130e-01, 4.98753130e-01, 0., 0., 0., 0.,
          0., 4.98753130e-01, 4.03470993e-01, 4.03470993e-01,
          4.03470993e-01, 0., 5.00560142e-02, 2.70100921e-01,
          4.03470993e-01, 3.26443106e-01, 4.03470993e-01, 4.37775850e-01,
          6.81015253e-02, 1.26052976e-01, 0., 1.29851803e-01,
          4.37775850e-01, 4.37775850e-01, 4.37775850e-01, 4.37775850e-01,
          4.03327852e-01, 4.03327852e-01, 4.03327852e-01, 2.96309412e-01,
          4.03327852e-01, 3.04822505e-01, 4.34509926e-02, 0.,
          4.03327852e-01, 3.58426660e-01, 3.58426660e-01, 3.58426660e-01,
          1.36566341e-01, 3.58426660e-01, 3.15701574e-01, 3.58426660e-01,
          3.27540904e-01, 3.58426660e-01, 3.12472939e-01, 8.63941107e-03,
          2.59182341e-02, 0., 4.23646599e-01, 4.23646599e-01,
          4.23646599e-01, 4.23646599e-01, 4.23646599e-01, 3.79611664e-02,
          4.60682780e-01, 4.60682780e-01, 4.60682780e-01, 4.60682780e-01,
          3.77033740e-01, 5.37443534e-02, 0., 0., 7.34068279e-04,
          3.57768267e-01, 4.07921940e-01, 3.56968135e-01, 4.07921940e-01,
          3.36295903e-01, 4.07921940e-01, 3.58056128e-01, 0., 0., 0., 0.,
          0., 5.30712306e-01, 3.86953890e-01, 5.30712306e-01,
          5.30712306e-01, 0. ]
      - [ 4.98753130e-01, 4.98753130e-01, 4.98753130e-01, 0., 0., 0., 0.,
          0., 4.98753130e-01, 4.07416642e-01, 4.07416642e-01,
          4.07416642e-01, 0., 0., 0., 4.07416642e-01, 4.07416642e-01,
          4.07416642e-01, 4.98753130e-01, 0., 0., 0., 0., 0.,
          4.98753130e-01, 4.98753130e-01, 4.98753130e-01, 3.79816234e-01,
          3.79816234e-01, 3.79816234e-01, 3.79816234e-01, 3.79816234e-01,
          3.57828945e-01, 5.10068014e-02, 0., 3.79816234e-01,
          3.49415749e-01, 3.17051947e-01, 3.49415749e-01, 3.33326548e-01,
          3.49415749e-01, 2.28762358e-01, 3.49415749e-01, 3.49415749e-01,
          3.49415749e-01, 4.31839913e-01, 0., 0., 0., 4.31839913e-01,
          2.91871607e-01, 4.31839913e-01, 4.05653089e-01, 4.31839913e-01,
          0., 4.76761162e-01, 4.76761162e-01, 4.76761162e-01,
          4.76761162e-01, 2.90379196e-01, 4.13921624e-02, 0., 0., 0.,
          4.19314116e-01, 4.19314116e-01, 2.69568890e-01, 4.19314116e-01,
          1.78133607e-01, 4.19314116e-01, 4.19314116e-01, 1.10863589e-01,
          0., 0., 0., 0., 5.35169780e-01, 3.26328397e-01, 5.35169780e-01,
          5.35169780e-01, 1.70132473e-01 ]
      - [ 4.98753130e-01, 4.98753130e-01, 4.98753130e-01, 0., 0., 0., 0.,
          0., 4.98753130e-01, 3.98694426e-01, 4.23079699e-01,
          4.23079699e-01, 0., 0., 0., 4.23079699e-01, 4.23079699e-01,
          3.47607255e-01, 4.98753130e-01, 0., 0., 0., 0., 0.,
          4.98753130e-01, 4.98753130e-01, 4.98753130e-01, 4.27799761e-01,
          4.27799761e-01, 4.27799761e-01, 2.80924499e-01, 4.27799761e-01,
          0., 3.96281891e-02, 1.32093942e-02, 4.27799761e-01,
          3.83078068e-01, 2.72761434e-01, 3.83078068e-01, 6.70956746e-02,
          3.83078068e-01, 1.91779912e-01, 3.83078068e-01, 3.83078068e-01,
          3.83078068e-01, 4.19723749e-01, 0., 0., 0., 4.19723749e-01,
          3.39067936e-01, 4.19723749e-01, 4.19723749e-01, 4.19723749e-01,
          0., 4.92527932e-01, 4.92527932e-01, 4.92527932e-01,
          4.92527932e-01, 0., 1.49235323e-01, 4.97451127e-02, 0., 0.,
          2.95747966e-01, 4.32718992e-01, 2.92274982e-01, 4.32718992e-01,
          1.64344177e-01, 4.32718992e-01, 4.32718992e-01, 2.16319636e-01,
          0., 0., 0., 0., 5.25392532e-01, 3.86455923e-01, 5.25392532e-01,
          5.25392532e-01, 1.31502628e-01 ]
      - [ 4.42533702e-01, 4.42533702e-01, 4.42533702e-01, 1.28059819e-01,
          4.42533702e-01, 0., 0., 0., 4.42533702e-01, 3.76176625e-01,
          3.76176625e-01, 3.76176625e-01, 4.21016812e-02, 3.76176625e-01,
          6.25070184e-02, 3.76176625e-01, 3.76176625e-01, 3.76176625e-01,
          4.51770633e-01, 0., 0., 0., 4.51770633e-01, 1.47385761e-01,
          4.51770633e-01, 3.96708965e-01, 4.51770633e-01, 3.67646694e-01,
          3.58972430e-01, 5.29862046e-01, 2.77969986e-01, 5.29862046e-01,
          0., 0., 0., 3.03163826e-01, 9.83085409e-02, 4.35551465e-01,
          4.35551465e-01, 1.43710807e-01, 4.35551465e-01, 9.91821885e-02,
          4.35551465e-01, 4.35551465e-01, 8.34829211e-02, 2.62818396e-01,
          0., 0., 0., 5.52583098e-01, 2.59392500e-01, 5.52583098e-01,
          4.01274681e-01, 2.93949783e-01, 0., 6.77287757e-01,
          6.77287757e-01, 2.35931605e-01, 1.41907245e-01, 0., 0., 0., 0.,
          0., 4.33505923e-01, 4.33505923e-01, 1.73689947e-01,
          4.33505923e-01, 1.60824105e-01, 4.33505923e-01, 4.33505923e-01,
          0., 0., 0., 0., 0., 3.05247694e-01, 2.28993312e-01,
          6.51108861e-01, 6.51108861e-01, 0. ]
      - [ 4.37561750e-01, 4.37561750e-01, 4.37561750e-01, 1.95774511e-01,
          4.37561750e-01, 0., 0., 0., 4.37561750e-01, 3.80658180e-01,
          3.80658180e-01, 3.80658180e-01, 7.94496611e-02, 3.80658180e-01,
          4.45797108e-02, 3.80658180e-01, 3.44228894e-01, 3.80658180e-01,
          3.85957688e-01, 3.69209230e-01, 4.60371040e-02, 0.,
          3.85957688e-01, 3.50312322e-01, 3.85957688e-01, 3.73011142e-01,
          3.85957688e-01, 3.15068811e-01, 3.11257064e-01, 5.53274572e-01,
          3.37484002e-01, 5.53274572e-01, 0., 0., 0., 2.68709391e-01,
          9.09881070e-02, 4.52526063e-01, 4.52526063e-01, 1.34412065e-01,
          4.52526063e-01, 7.54194632e-02, 4.52526063e-01, 3.69858205e-01,
          8.67871270e-02, 1.61903918e-01, 1.03323072e-01, 1.47437423e-01,
          0., 4.86072630e-01, 4.86072630e-01, 4.86072630e-01,
          4.54627544e-01, 1.45027518e-01, 0., 7.04615593e-01,
          7.04615593e-01, 0., 0., 0., 0., 0., 0., 0., 4.51242775e-01,
          4.51242775e-01, 1.92292571e-01, 4.40244645e-01, 1.39130250e-01,
          4.51242775e-01, 3.66719902e-01, 0., 0., 9.48548913e-02,
          2.94054985e-01, 6.65773228e-02, 3.55920672e-01, 2.24605352e-01,
          5.98747075e-01, 5.98747075e-01, 0. ]
      - [ 4.37942982e-01, 4.37942982e-01, 4.37942982e-01, 0., 0., 0.,
          4.37942982e-01, 1.91455483e-01, 4.37942982e-01, 4.28157955e-01,
          2.68910706e-01, 4.28157955e-01, 0., 8.25466663e-02, 0.,
          4.28157955e-01, 4.28157955e-01, 4.28157955e-01, 5.07598519e-01,
          0., 0., 0., 4.00832534e-01, 1.06532812e-01, 4.26197648e-01,
          3.54904979e-01, 5.07598519e-01, 4.55687106e-01, 3.38108778e-01,
          4.55687106e-01, 2.03581795e-01, 4.55687106e-01, 0.,
          8.75333697e-02, 3.76868322e-02, 4.55687106e-01, 3.73907447e-01,
          1.81428105e-01, 3.73907447e-01, 8.40970427e-02, 3.73907447e-01,
          3.73907447e-01, 3.73907447e-01, 3.42688352e-01, 3.73907447e-01,
          4.55044895e-01, 0., 0., 0., 4.55044895e-01, 3.22724342e-01,
          4.55044895e-01, 2.51078278e-01, 4.55044895e-01, 1.31434172e-01,
          5.30147910e-01, 5.30147910e-01, 6.82166666e-02, 5.30147910e-01,
          0., 3.41535062e-01, 1.13845021e-01, 0., 4.21178415e-02,
          4.11799818e-01, 5.20736396e-01, 1.57260280e-02, 6.14868291e-02,
          7.69377947e-02, 5.20736396e-01, 5.20736396e-01, 0., 0., 0., 0.,
          0., 5.68511307e-01, 1.57186836e-01, 5.68511307e-01,
          5.68511307e-01, 0. ]
      - [ 4.82482523e-01, 4.82482523e-01, 4.82482523e-01, 0., 0., 0.,
          2.37784728e-01, 8.64982158e-02, 4.82482523e-01, 1.67069599e-01,
          3.88308048e-01, 4.87093836e-01, 0., 0., 0., 4.87093836e-01,
          4.87093836e-01, 3.23509842e-01, 4.98753130e-01, 0., 0., 0., 0.,
          0., 4.98753130e-01, 4.98753130e-01, 4.98753130e-01,
          4.55417365e-01, 2.97470123e-01, 4.55417365e-01, 2.77671456e-01,
          4.55417365e-01, 0., 1.47338388e-02, 4.91127977e-03,
          4.55417365e-01, 3.64279181e-01, 2.51670539e-01, 3.64279181e-01,
          2.15184063e-01, 3.64279181e-01, 3.00869495e-01, 3.64279181e-01,
          3.64279181e-01, 3.64279181e-01, 4.68405247e-01, 0., 0., 0.,
          4.68405247e-01, 2.02212349e-01, 4.55178708e-01, 2.98384756e-01,
          4.68405247e-01, 4.58861627e-02, 5.33386588e-01, 5.33386588e-01,
          2.59028971e-01, 5.33386588e-01, 4.97046113e-02, 2.50794828e-01,
          8.12365487e-02, 0., 2.62266770e-02, 3.36183786e-01,
          4.16684955e-01, 1.18315242e-01, 4.16684955e-01, 4.16684955e-01,
          4.16684955e-01, 4.16684955e-01, 0., 0., 0., 0., 0.,
          6.22341096e-01, 4.09008592e-01, 6.22341096e-01, 2.27774620e-01,
          0. ]
      - [ 4.80852425e-01, 4.80852425e-01, 4.80852425e-01, 0., 0., 0.,
          2.40422055e-01, 1.11885346e-01, 4.80852425e-01, 4.10437495e-01,
          3.91924948e-01, 4.10437495e-01, 0., 0., 0., 4.10437495e-01,
          4.10437495e-01, 4.10437495e-01, 5.37614048e-01, 3.25387865e-01,
          0., 0., 1.50561586e-01, 6.22578748e-02, 4.46604311e-01,
          2.91025639e-01, 5.37614048e-01, 4.44727510e-01, 3.64102006e-01,
          4.44727510e-01, 2.54442424e-01, 4.44727510e-01, 0.,
          8.00286159e-02, 2.66762078e-02, 4.44727510e-01, 3.85432363e-01,
          2.50501335e-01, 3.85432363e-01, 7.69424662e-02, 3.85432363e-01,
          1.90077886e-01, 3.85432363e-01, 3.85432363e-01, 3.85432363e-01,
          4.61894423e-01, 1.46183193e-01, 0., 0., 4.61894423e-01,
          4.61894423e-01, 3.17269504e-01, 1.41318902e-01, 4.61894423e-01,
          0., 5.27227402e-01, 5.27227402e-01, 2.21072629e-01,
          5.27227402e-01, 4.76139672e-02, 3.14868450e-01, 1.02693766e-01,
          0., 0., 3.16550404e-01, 4.63839769e-01, 1.00310780e-01,
          4.56662625e-01, 1.76402748e-01, 4.63839769e-01, 4.63839769e-01,
          0., 0., 0., 0., 0., 5.72898805e-01, 4.96135622e-01,
          5.72898805e-01, 3.02824289e-01, 0. ]
      - [ 4.76752967e-01, 4.76752967e-01, 4.76752967e-01, 0., 0., 0.,
          2.66530693e-01, 1.22580931e-01, 4.76752967e-01, 4.09312963e-01,
          3.86825085e-01, 4.15333837e-01, 0., 0., 0., 4.15333837e-01,
          4.15333837e-01, 4.01464432e-01, 4.98392731e-01, 3.79614793e-02,
          0., 0., 0., 0., 4.98392731e-01, 4.98392731e-01, 4.98392731e-01,
          4.58903790e-01, 3.38074833e-01, 4.58903790e-01, 1.78731576e-01,
          4.58903790e-01, 0., 7.82647133e-02, 2.60882396e-02,
          4.58903790e-01, 3.69436860e-01, 3.21577787e-01, 3.69436860e-01,
          6.47623986e-02, 3.69436860e-01, 3.37850600e-01, 3.69436860e-01,
          3.03548366e-01, 3.69436860e-01, 4.08797562e-01, 2.51962151e-02,
          0., 0., 4.08797562e-01, 4.08797562e-01, 4.08797562e-01,
          3.99630070e-01, 4.08797562e-01, 2.45651558e-01, 5.08051455e-01,
          5.08051455e-01, 2.21058920e-01, 5.08051455e-01, 1.37655899e-01,
          2.90302306e-01, 9.02267173e-02, 0., 8.26870576e-02,
          3.72835487e-01, 4.17276680e-01, 6.32942691e-02, 3.86655718e-01,
          4.17276680e-01, 4.17276680e-01, 4.17276680e-01, 0., 0., 0., 0.,
          0., 5.47779799e-01, 5.47779799e-01, 5.47779799e-01,
          3.07150751e-01, 0. ]
      - [ 7.81472921e-02, 7.01728284e-01, 7.01728284e-01, 0., 0., 0., 0.,
          0., 4.51984107e-02, 8.44049975e-02, 4.92606133e-01,
          4.93324667e-01, 0., 0., 0., 4.93324667e-01, 4.93324667e-01,
          1.23208456e-01, 1.53629323e-02, 0., 0., 0., 0., 0.,
          6.99349105e-01, 6.99349105e-01, 1.20849468e-01, 0.,
          5.75688422e-01, 5.75688422e-01, 5.75688422e-01, 0., 0., 0., 0.,
          0., 0., 4.52171087e-01, 4.61314768e-01, 3.56378049e-01, 0., 0.,
          4.61314768e-01, 4.61314768e-01, 1.59669206e-01, 0., 0., 0., 0.,
          0., 0., 6.82887495e-01, 6.82887495e-01, 2.45992079e-01,
          2.95901507e-01, 6.58523619e-01, 6.58523619e-01, 1.91330925e-01,
          4.42002788e-02, 0., 0., 0., 0., 1.36072576e-01, 4.82531548e-01,
          4.82531548e-01, 8.79849866e-02, 4.40552942e-02, 1.88774720e-01,
          4.82531548e-01, 4.82531548e-01, 0., 0., 0., 0., 0., 0.,
          2.03489438e-01, 6.89820945e-01, 6.89820945e-01, 0. ]
      - [ 1.30142912e-01, 6.97670102e-01, 6.97670102e-01, 0., 0., 0., 0.,
          0., 5.10997809e-02, 2.39971265e-01, 4.69655037e-01,
          4.69655037e-01, 0., 0., 0., 4.69655037e-01, 4.69655037e-01,
          2.35413387e-01, 1.15697958e-01, 0., 0., 0., 0., 0.,
          6.86291635e-01, 6.86291635e-01, 1.94346756e-01, 0.,
          7.04615593e-01, 7.04615593e-01, 0., 0., 0., 0., 0., 0., 0.,
          4.98753130e-01, 4.98753130e-01, 0., 0., 0., 4.98753130e-01,
          4.98753130e-01, 0., 0., 0., 0., 0., 0., 0., 7.04615593e-01,
          7.04615593e-01, 0., 0., 6.08882368e-01, 6.08882368e-01,
          4.08106476e-01, 2.93077141e-01, 0., 0., 0., 0., 0.,
          4.07559812e-01, 4.15602267e-01, 3.02627921e-01, 4.15602267e-01,
          2.80211151e-01, 4.15602267e-01, 3.76119465e-01, 0., 0., 0., 0.,
          0., 5.37131011e-01, 3.59314442e-01, 5.37131011e-01,
          5.37131011e-01, 0. ]
      - [ 2.11508080e-01, 6.82640016e-01, 6.82640016e-01, 0., 0., 0., 0.,
          0., 1.28276840e-01, 2.26458475e-01, 4.70695883e-01,
          4.70695883e-01, 0., 0., 0., 4.70695883e-01, 4.70695883e-01,
          2.40409270e-01, 4.74848263e-02, 0., 0., 0., 0., 0.,
          6.98622108e-01, 6.98622108e-01, 1.20936267e-01, 0.,
          7.04615593e-01, 7.04615593e-01, 0., 0., 0., 0., 0., 0., 0.,
          4.70624059e-01, 5.07753849e-01, 0., 0., 0., 5.07753849e-01,
          5.07753849e-01, 0., 0., 0., 0., 0., 0., 0., 7.04615593e-01,
          7.04615593e-01, 0., 0., 6.93199694e-01, 6.93199694e-01,
          1.12478495e-01, 1.39201030e-01, 0., 0., 0., 0., 0.,
          4.53601003e-01, 4.95613426e-01, 7.20475912e-02, 1.97014302e-01,
          9.16111991e-02, 4.95613426e-01, 4.95613426e-01, 0., 0., 0., 0.,
          0., 4.91687804e-02, 9.82137695e-02, 7.00337589e-01,
          7.00337589e-01, 0. ]
      - [ 7.81472921e-02, 7.01728284e-01, 7.01728284e-01, 0., 0., 0., 0.,
          0., 4.51984107e-02, 8.40187073e-02, 4.90351647e-01,
          4.96485949e-01, 0., 0., 0., 4.96485949e-01, 4.96485949e-01,
          8.96808431e-02, 1.53849740e-02, 0., 0., 0., 0., 0.,
          7.03847766e-01, 7.03847766e-01, 4.39769179e-02, 0.,
          7.04615593e-01, 7.04615593e-01, 0., 0., 0., 0., 0., 0., 0.,
          4.70624059e-01, 5.07753849e-01, 0., 0., 0., 5.07753849e-01,
          5.07753849e-01, 0., 0., 0., 0., 0., 0., 0., 7.04615593e-01,
          7.04615593e-01, 0., 0., 7.02638566e-01, 7.02638566e-01,
          6.80184290e-02, 3.09483930e-02, 0., 0., 0., 0., 0.,
          4.79184806e-01, 4.95930910e-01, 4.50467058e-02, 9.07001197e-02,
          5.09145781e-02, 4.95930910e-01, 4.95930910e-01, 1.21401384e-01,
          0., 0., 0., 0., 4.34772335e-02, 1.03681922e-01, 6.78038716e-01,
          6.78038716e-01, 2.47220591e-01 ]
      - [ 7.81472921e-02, 7.01728284e-01, 7.01728284e-01, 0., 0., 0., 0.,
          0., 4.51984107e-02, 8.40187073e-02, 4.90351647e-01,
          4.96485949e-01, 0., 0., 0., 4.96485949e-01, 4.96485949e-01,
          8.96808431e-02, 1.53849740e-02, 0., 0., 0., 0., 0.,
          7.03847766e-01, 7.03847766e-01, 4.39769179e-02, 0.,
          6.93272173e-01, 6.93272173e-01, 1.78400159e-01, 0., 0., 0., 0.,
          0., 0., 4.76005346e-01, 4.93702501e-01, 1.16722435e-01, 0., 0.,
          4.93702501e-01, 4.93702501e-01, 1.53744712e-01, 0., 0., 0., 0.,
          0., 0., 6.75460577e-01, 6.75460577e-01, 2.84188002e-01, 0.,
          5.96212327e-01, 5.96212327e-01, 5.32079577e-01, 0., 0., 0., 0.,
          0., 0., 4.81664389e-01, 4.81664389e-01, 2.56690055e-01, 0., 0.,
          4.81664389e-01, 4.81664389e-01, 3.60125042e-02, 0., 0., 0., 0.,
          0., 0., 7.03791559e-01, 7.03791559e-01, 4.82629538e-02 ]
      - [ 1.71522126e-02, 7.04511583e-01, 7.04511583e-01, 0., 0., 0., 0.,
          0., 0., 2.77249068e-02, 4.98382717e-01, 4.98382717e-01, 0., 0.,
          0., 4.98382717e-01, 4.98382717e-01, 2.66884640e-02,
          8.48941412e-03, 0., 0., 0., 0., 0., 7.04353869e-01,
          7.04353869e-01, 2.58486345e-02, 0., 6.79787815e-01,
          6.79787815e-01, 2.62660801e-01, 0., 0., 0., 0., 0., 0.,
          4.83896494e-01, 4.83896494e-01, 2.09685683e-01, 0., 0.,
          4.83896494e-01, 4.83896494e-01, 1.20728940e-01, 0.,
          1.80601180e-02, 5.41803464e-02, 0., 0., 0., 6.73188508e-01,
          6.73188508e-01, 2.89226830e-01, 0., 5.91503799e-01,
          5.91503799e-01, 5.42531252e-01, 0., 0., 0., 0., 0., 0.,
          4.79799092e-01, 4.79799092e-01, 2.89085954e-01, 3.98632996e-02,
          4.01627794e-02, 4.79799092e-01, 4.65724498e-01, 3.02350912e-02,
          0., 1.02161214e-01, 3.09278965e-01, 1.96101237e-02,
          3.05237900e-02, 6.61567524e-02, 6.62992239e-01, 6.62992239e-01,
          4.98037077e-02 ]
      - [ 2.98695285e-02, 6.51216149e-01, 6.51216149e-01, 1.80130869e-01,
          0., 0., 3.13602090e-01, 1.15492024e-01, 1.75922904e-02,
          2.28834655e-02, 3.90129030e-01, 5.11242747e-01, 9.68851820e-02,
          0., 0., 5.11242747e-01, 5.11242747e-01, 2.20625803e-01, 0., 0.,
          0., 0., 0., 0., 6.65736079e-01, 6.65736079e-01, 3.27024162e-01,
          2.13055369e-02, 5.94497204e-01, 5.94497204e-01, 5.35156488e-01,
          0., 0., 1.80912912e-02, 6.03043055e-03, 0., 8.08780547e-03,
          4.33199167e-01, 5.04689753e-01, 2.03151047e-01, 0., 0.,
          5.04689753e-01, 5.04689753e-01, 4.27422225e-02, 0., 0., 0., 0.,
          0., 0., 7.03910470e-01, 7.03910470e-01, 4.46499996e-02,
          3.22733194e-01, 6.60365999e-01, 6.60365999e-01, 8.71631578e-02,
          4.36365120e-02, 3.04189753e-02, 7.78282434e-02, 2.44973879e-02,
          0., 1.23349734e-01, 4.58854198e-01, 4.58854198e-01,
          3.33140567e-02, 3.58781256e-02, 3.68260622e-01, 4.58854198e-01,
          4.58854198e-01, 0., 0., 0., 0., 0., 0., 3.55094582e-01,
          6.58533752e-01, 6.58533752e-01, 0. ]
      - [ 5.01425266e-01, 5.01425266e-01, 2.08690271e-01, 1.18988365e-01,
          3.41582835e-01, 1.62702516e-01, 5.62296696e-02, 1.91540033e-01,
          5.01425266e-01, 5.23410738e-01, 1.64673418e-01, 9.08431038e-02,
          8.98393691e-02, 5.23410738e-01, 1.80604577e-01, 1.17410488e-01,
          2.88187951e-01, 5.23410738e-01, 4.56414551e-01, 2.37887040e-01,
          1.38612181e-01, 2.21431062e-01, 4.56414551e-01, 1.65429652e-01,
          2.20676079e-01, 4.11822855e-01, 4.56414551e-01, 3.37161899e-01,
          3.48675370e-01, 3.48675370e-01, 3.48675370e-01, 3.48675370e-01,
          3.48675370e-01, 1.78371936e-01, 3.48675370e-01, 3.48675370e-01,
          4.50733632e-01, 6.22254312e-02, 6.13469556e-02, 3.79267335e-01,
          4.50733632e-01, 3.87768447e-01, 5.63691445e-02, 2.84594804e-01,
          4.50733632e-01, 3.58726948e-01, 3.58726948e-01, 1.95368156e-01,
          3.58726948e-01, 3.58726948e-01, 3.58726948e-01, 2.39691585e-01,
          3.58726948e-01, 3.58726948e-01, 2.72652894e-01, 3.28579545e-01,
          2.58042961e-01, 3.76125187e-01, 3.76125187e-01, 3.70591432e-01,
          2.24915236e-01, 3.67446303e-01, 3.76125187e-01, 4.44233954e-01,
          1.23962387e-01, 1.15996711e-01, 4.44233954e-01, 4.44233954e-01,
          3.23531330e-01, 1.02733582e-01, 2.49276742e-01, 4.44233954e-01,
          4.45837587e-01, 4.45837587e-01, 1.46110684e-01, 1.76213086e-01,
          4.45837587e-01, 4.45837587e-01, 1.98894158e-01, 8.28886032e-02,
          3.18799436e-01 ]
      - [ 4.61443812e-01, 4.61443812e-01, 2.39347056e-01, 3.27593274e-02,
          2.45826781e-01, 3.73337209e-01, 1.88484505e-01, 2.50802010e-01,
          4.61443812e-01, 5.19581437e-01, 2.57913768e-01, 6.08028099e-03,
          5.33423536e-02, 5.19581437e-01, 3.38279784e-01, 2.33374275e-02,
          2.31670868e-02, 5.19581437e-01, 5.08968234e-01, 8.03601295e-02,
          1.19556300e-01, 2.30437413e-01, 5.08968234e-01, 5.52711263e-02,
          1.56756327e-01, 3.41013968e-01, 5.08968234e-01, 3.52236271e-01,
          3.52236271e-01, 3.52236271e-01, 2.53180295e-01, 3.52236271e-01,
          3.52236271e-01, 3.46578389e-01, 2.98126072e-01, 3.20987165e-01,
          4.24540967e-01, 2.68515021e-01, 1.07985742e-01, 1.64947078e-01,
          4.24540967e-01, 4.24540967e-01, 1.78684056e-01, 3.63210857e-01,
          4.24540967e-01, 3.64914060e-01, 3.64914060e-01, 2.34157175e-01,
          3.05963248e-01, 3.64914060e-01, 3.64914060e-01, 3.64914060e-01,
          2.21218482e-01, 3.64914060e-01, 4.06428754e-01, 3.01484376e-01,
          4.09123182e-01, 4.09123182e-01, 4.09123182e-01, 2.75453478e-01,
          2.10492373e-01, 2.00664133e-01, 2.77925700e-01, 4.64961857e-01,
          1.16569504e-01, 1.19463980e-01, 2.21300811e-01, 4.64961857e-01,
          4.64961857e-01, 1.54947042e-01, 2.09121183e-01, 4.49680835e-01,
          4.25563306e-01, 2.34980702e-01, 1.37575865e-01, 3.91403288e-01,
          4.25563306e-01, 4.25563306e-01, 4.25563306e-01, 1.22482665e-01,
          1.70266777e-01 ]
      - [ 4.70177799e-01, 4.70177799e-01, 1.99919641e-01, 6.01975024e-02,
          3.70170504e-01, 4.70177799e-01, 6.21162541e-02, 3.79862636e-02,
          3.82339150e-01, 4.97218043e-01, 1.38280407e-01, 5.72372042e-02,
          3.20352286e-01, 4.97218043e-01, 3.43794614e-01, 6.92071393e-02,
          7.31377006e-02, 4.97218043e-01, 4.41608816e-01, 5.59995994e-02,
          1.42180920e-01, 3.73692453e-01, 3.70034426e-01, 5.12894392e-02,
          3.21395308e-01, 4.44238484e-01, 4.44238484e-01, 3.68853629e-01,
          3.68853629e-01, 3.68853629e-01, 1.65531769e-01, 3.68853629e-01,
          3.68853629e-01, 3.68853629e-01, 3.68853629e-01, 1.28620729e-01,
          3.93711030e-01, 3.93711030e-01, 1.80373922e-01, 3.93711030e-01,
          3.93711030e-01, 3.93711030e-01, 2.30849385e-01, 1.34215444e-01,
          3.42322677e-01, 3.49374503e-01, 3.49374503e-01, 3.49374503e-01,
          3.49374503e-01, 3.18048507e-01, 3.49374503e-01, 3.49374503e-01,
          3.49374503e-01, 2.02278674e-01, 3.60252291e-01, 3.39774847e-01,
          3.60252291e-01, 3.60252291e-01, 3.60252291e-01, 2.07115814e-01,
          3.60252291e-01, 3.60252291e-01, 2.43652284e-01, 4.64328766e-01,
          3.53600264e-01, 2.23882839e-01, 3.03650677e-01, 4.64328766e-01,
          4.64328766e-01, 8.66189376e-02, 6.38380870e-02, 2.63856083e-01,
          4.56812233e-01, 3.75760317e-01, 4.21511978e-02, 7.14589879e-02,
          4.56812233e-01, 4.56812233e-01, 4.56812233e-01, 1.03525586e-01,
          4.39420082e-02 ]
      - [ 4.76547688e-01, 4.76547688e-01, 4.76547688e-01, 4.76793684e-02,
          2.52942055e-01, 2.00560793e-01, 2.60745466e-01, 1.64640084e-01,
          3.35223734e-01, 4.19342518e-01, 4.19342518e-01, 1.50614724e-01,
          5.39823696e-02, 4.19342518e-01, 4.19342518e-01, 2.09902495e-01,
          2.16592237e-01, 4.19342518e-01, 3.98315698e-01, 2.59554267e-01,
          3.51740390e-01, 2.30781898e-01, 3.98315698e-01, 1.46878913e-01,
          3.08991730e-01, 3.98315698e-01, 3.98315698e-01, 3.65381330e-01,
          4.95390475e-01, 4.95390475e-01, 9.25539210e-02, 7.21629187e-02,
          3.11163068e-01, 4.95390475e-01, 9.80674922e-02, 7.14161918e-02,
          3.38918597e-01, 3.94420236e-01, 2.28970483e-01, 1.10138923e-01,
          4.32967424e-01, 4.32967424e-01, 4.32967424e-01, 1.57543182e-01,
          2.71075040e-01, 1.40519336e-01, 3.97987723e-01, 3.97987723e-01,
          2.61010051e-01, 3.97987723e-01, 3.86483610e-01, 3.97987723e-01,
          2.46665448e-01, 2.53696352e-01, 1.13197409e-01, 3.98318738e-01,
          3.98318738e-01, 3.98318738e-01, 3.98318738e-01, 1.33836702e-01,
          3.98318738e-01, 3.98318738e-01, 1.15534201e-01, 3.66070718e-01,
          1.43713385e-01, 1.93996966e-01, 3.66070718e-01, 3.66070718e-01,
          3.66070718e-01, 3.66070718e-01, 3.66070718e-01, 3.66070718e-01,
          1.25939995e-01, 4.19125080e-01, 4.19125080e-01, 2.62942433e-01,
          4.19125080e-01, 4.19125080e-01, 4.19125080e-01, 1.28435910e-01,
          1.26445726e-01 ]
      - [ 4.62546736e-01, 4.62546736e-01, 1.82784960e-01, 7.17359260e-02,
          3.62265646e-01, 4.62546736e-01, 1.71598196e-01, 7.72518218e-02,
          3.85129631e-01, 4.61676419e-01, 3.19652140e-01, 1.13460168e-01,
          1.32527128e-01, 4.61676419e-01, 4.61676419e-01, 8.04204270e-02,
          6.10448904e-02, 4.61676419e-01, 3.43157142e-01, 3.43157142e-01,
          3.43157142e-01, 3.43157142e-01, 3.43157142e-01, 2.33488157e-01,
          3.43157142e-01, 3.43157142e-01, 3.43157142e-01, 3.71462405e-01,
          3.71462405e-01, 3.71462405e-01, 1.81723446e-01, 2.68680990e-01,
          3.71462405e-01, 3.71462405e-01, 3.71462405e-01, 2.51336694e-01,
          3.93584728e-01, 3.93584728e-01, 1.96726799e-01, 2.92524904e-01,
          3.93584728e-01, 3.93584728e-01, 1.96130097e-01, 2.42454469e-01,
          3.93584728e-01, 4.36339229e-01, 4.36339229e-01, 3.55603993e-01,
          1.55719370e-01, 2.03609824e-01, 4.36339229e-01, 4.36339229e-01,
          1.59181297e-01, 1.28744483e-01, 3.48259032e-01, 1.62005007e-01,
          3.48259032e-01, 3.48259032e-01, 3.48259032e-01, 3.48259032e-01,
          3.48259032e-01, 3.48259032e-01, 3.48259032e-01, 4.43774134e-01,
          4.43774134e-01, 1.03741273e-01, 3.14128935e-01, 4.43774134e-01,
          4.43774134e-01, 1.20572902e-01, 9.68205258e-02, 2.72899181e-01,
          4.27394152e-01, 4.17368472e-01, 1.96370110e-01, 7.60694519e-02,
          4.27394152e-01, 4.27394152e-01, 4.27394152e-01, 1.62483498e-01,
          1.41853243e-01 ]
      - [ 4.56049830e-01, 4.56049830e-01, 1.24956720e-01, 8.82950351e-02,
          4.56049830e-01, 4.56049830e-01, 2.17059866e-01, 7.36764818e-02,
          2.95914650e-01, 4.25555319e-01, 1.20908022e-01, 1.15975276e-01,
          4.25555319e-01, 4.25555319e-01, 2.83976555e-01, 7.24753663e-02,
          3.96730810e-01, 4.25555319e-01, 1.11113213e-01, 4.21991497e-02,
          2.74013311e-01, 4.85408932e-01, 2.64111012e-01, 1.83352027e-02,
          3.59145075e-01, 4.85408932e-01, 4.85408932e-01, 3.06244642e-01,
          3.52302730e-01, 3.16889107e-01, 3.28883022e-01, 2.71155983e-01,
          3.52302730e-01, 3.52302730e-01, 3.52302730e-01, 3.52302730e-01,
          3.36708277e-01, 3.36708277e-01, 3.36708277e-01, 3.36708277e-01,
          3.36708277e-01, 3.36708277e-01, 3.36708277e-01, 2.99426377e-01,
          3.36708277e-01, 1.13254502e-01, 4.21930224e-01, 4.21930224e-01,
          4.21930224e-01, 8.34646374e-02, 9.48027745e-02, 4.21930224e-01,
          4.21930224e-01, 2.77270526e-01, 1.84391290e-01, 2.09593311e-01,
          3.19394708e-01, 4.47084755e-01, 4.47084755e-01, 1.01321839e-01,
          1.09390944e-01, 4.40119117e-01, 4.47084755e-01, 4.54146296e-01,
          2.29933724e-01, 7.70454034e-02, 4.54146296e-01, 4.54146296e-01,
          1.94627970e-01, 5.05271964e-02, 2.66888916e-01, 4.54146296e-01,
          4.02635336e-01, 4.02635336e-01, 3.05873781e-01, 6.01835959e-02,
          4.02635336e-01, 4.02635336e-01, 4.02635336e-01, 1.82183966e-01,
          2.34584257e-01 ]
      - [ 5.63696861e-01, 5.63696861e-01, 1.10633239e-01, 6.94435686e-02,
          9.59140658e-02, 2.94920169e-02, 4.98228930e-02, 1.07213825e-01,
          5.63696861e-01, 6.18360937e-01, 2.35763431e-01, 1.14886947e-02,
          1.07938640e-01, 3.36124152e-01, 2.06291437e-01, 9.54262633e-03,
          7.80488178e-02, 6.18360937e-01, 5.61778009e-01, 6.15822487e-02,
          5.94826080e-02, 1.14239559e-01, 1.28023833e-01, 2.57598702e-02,
          1.00854121e-01, 5.61778009e-01, 5.61778009e-01, 4.01964575e-01,
          4.01964575e-01, 4.01964575e-01, 4.01964575e-01, 4.01964575e-01,
          1.02993451e-01, 2.27293298e-01, 2.20173806e-01, 2.78137207e-01,
          3.48151177e-01, 3.48151177e-01, 1.63852200e-01, 3.48151177e-01,
          3.48151177e-01, 3.48151177e-01, 3.48151177e-01, 3.48151177e-01,
          3.48151177e-01, 2.85062909e-01, 3.43223959e-01, 3.43223959e-01,
          3.43223959e-01, 3.01149487e-01, 3.43223959e-01, 3.43223959e-01,
          3.43223959e-01, 3.43223959e-01, 1.01731285e-01, 2.36872762e-01,
          4.94613886e-01, 4.94613886e-01, 4.94613886e-01, 1.00318134e-01,
          2.67693996e-01, 2.18182862e-01, 2.55627722e-01, 4.19896513e-01,
          1.79676548e-01, 1.96875438e-01, 4.52082932e-01, 4.52082932e-01,
          4.26357210e-01, 2.39454225e-01, 1.62341207e-01, 2.71838725e-01,
          2.03790188e-01, 1.63882941e-01, 1.18753776e-01, 1.96396694e-01,
          5.22817552e-01, 5.22817552e-01, 5.22817552e-01, 1.99395075e-01,
          1.18082292e-01 ]
      - [ 4.62569237e-01, 4.62569237e-01, 4.28786546e-01, 4.97657023e-02,
          2.83279598e-01, 1.28171235e-01, 2.46859387e-01, 9.75681022e-02,
          4.62569237e-01, 5.06206632e-01, 5.06206632e-01, 1.28685787e-01,
          1.82221159e-02, 3.54711831e-01, 3.95372391e-01, 1.46358341e-01,
          3.46032567e-02, 4.01003808e-01, 4.36566651e-01, 2.62847245e-01,
          1.26418054e-01, 7.96107948e-02, 3.00832748e-01, 2.26647004e-01,
          4.36566651e-01, 4.36566651e-01, 4.36566651e-01, 4.22564834e-01,
          4.22564834e-01, 4.22564834e-01, 5.05702086e-02, 1.74344197e-01,
          4.01528060e-01, 4.22564834e-01, 8.46203864e-02, 2.83188820e-01,
          4.27367061e-01, 4.27367061e-01, 2.23255843e-01, 8.75194296e-02,
          4.27367061e-01, 4.27367061e-01, 4.27367061e-01, 1.07753530e-01,
          1.15776204e-01, 1.86991170e-01, 4.66926485e-01, 3.85046184e-01,
          8.83397460e-02, 3.44371855e-01, 4.66926485e-01, 4.66926485e-01,
          1.76288813e-01, 2.39845105e-02, 2.42375582e-01, 2.77098566e-01,
          3.99093539e-01, 3.99093539e-01, 3.99093539e-01, 3.15515935e-01,
          3.99093539e-01, 2.40907967e-01, 2.56503284e-01, 4.17740405e-01,
          4.17740405e-01, 1.08089253e-01, 7.83218145e-02, 4.17740405e-01,
          4.17740405e-01, 4.17740405e-01, 1.47401735e-01, 2.89390355e-01,
          1.72244221e-01, 3.87750208e-01, 1.46892652e-01, 1.78068522e-02,
          4.18564141e-01, 5.52567899e-01, 5.52567899e-01, 5.53221218e-02,
          6.04169779e-02 ]
      - [ 3.95073980e-01, 3.95073980e-01, 2.15836227e-01, 5.74208535e-02,
          3.95073980e-01, 3.95073980e-01, 3.95073980e-01, 1.50617808e-01,
          3.78243059e-01, 4.52020496e-01, 1.00603789e-01, 7.17868134e-02,
          4.52020496e-01, 4.52020496e-01, 2.30981037e-01, 9.91747826e-02,
          3.15804362e-01, 4.52020496e-01, 1.47463188e-01, 1.89833552e-01,
          2.55781800e-01, 4.76207227e-01, 2.06570208e-01, 6.62326962e-02,
          3.80340815e-01, 4.76207227e-01, 4.76207227e-01, 2.58073032e-01,
          3.35564762e-01, 3.57539624e-01, 3.57539624e-01, 3.57539624e-01,
          2.24087074e-01, 3.57539624e-01, 3.57539624e-01, 3.57539624e-01,
          2.62039781e-01, 1.92290425e-01, 3.62055480e-01, 3.92707795e-01,
          3.92707795e-01, 1.41101062e-01, 3.50092769e-01, 3.92707795e-01,
          3.92707795e-01, 1.04135990e-01, 4.27648872e-01, 4.27648872e-01,
          4.27648872e-01, 1.43361539e-01, 8.69629979e-02, 4.27648872e-01,
          4.27648872e-01, 2.05793262e-01, 1.79370284e-01, 1.39540300e-01,
          4.55415010e-01, 4.55415010e-01, 4.55415010e-01, 1.72819048e-01,
          1.58643648e-01, 4.15036082e-01, 3.07096481e-01, 3.30420524e-01,
          1.22225739e-01, 3.18054974e-01, 4.36004221e-01, 4.36004221e-01,
          8.89484659e-02, 4.53679636e-02, 4.36004221e-01, 4.36004221e-01,
          3.91603410e-01, 3.91603410e-01, 3.52377921e-01, 1.05334327e-01,
          3.91603410e-01, 3.91603410e-01, 3.91603410e-01, 1.82008237e-01,
          2.46838287e-01 ]
      - [ 5.25731862e-01, 5.25731862e-01, 4.11300123e-01, 1.11302726e-01,
          2.81888962e-01, 2.22528800e-01, 1.93688661e-01, 1.52643010e-01,
          2.65725493e-01, 4.56844181e-01, 4.56844181e-01, 9.84329581e-02,
          9.60426182e-02, 4.56844181e-01, 4.56844181e-01, 1.21129036e-01,
          7.85331801e-02, 3.47645670e-01, 3.59035045e-01, 3.59035045e-01,
          2.86802500e-01, 1.08692333e-01, 3.59035045e-01, 3.59035045e-01,
          3.59035045e-01, 3.59035045e-01, 3.59035045e-01, 3.28491002e-01,
          4.40109789e-01, 4.40109789e-01, 1.59167200e-01, 1.29745796e-01,
          3.92198265e-01, 4.40109789e-01, 3.04514438e-01, 1.33757412e-01,
          4.11716670e-01, 4.11716670e-01, 2.13582203e-01, 4.12922353e-02,
          3.33828002e-01, 4.11716670e-01, 4.11716670e-01, 3.69724572e-01,
          1.49615854e-01, 2.45534167e-01, 5.07366359e-01, 2.48693854e-01,
          4.56802510e-02, 2.29853958e-01, 5.07366359e-01, 5.07366359e-01,
          2.12118968e-01, 2.49288250e-02, 3.20839554e-01, 4.05556917e-01,
          4.05556917e-01, 4.05556917e-01, 4.05556917e-01, 2.21325859e-01,
          3.29661220e-01, 2.38628894e-01, 1.43176407e-01, 4.24520880e-01,
          4.24520880e-01, 9.35473591e-02, 1.53604120e-01, 4.24520880e-01,
          4.24520880e-01, 4.24520880e-01, 1.68336168e-01, 1.84355795e-01,
          2.61109173e-01, 3.38493913e-01, 1.76948607e-01, 1.14465877e-01,
          4.80471224e-01, 4.80471224e-01, 4.80471224e-01, 2.57771194e-01,
          9.50149521e-02 ]
      - [ 4.96870190e-01, 4.96870190e-01, 2.80003130e-01, 9.41717625e-02,
          2.15351388e-01, 4.96870190e-01, 2.46270552e-01, 1.27483517e-01,
          2.09403977e-01, 4.18180525e-01, 4.18180525e-01, 1.94557279e-01,
          1.94964543e-01, 4.18180525e-01, 4.18180525e-01, 1.91854894e-01,
          9.36792046e-02, 4.18180525e-01, 2.99729377e-01, 2.63222277e-01,
          3.70776415e-01, 3.21079612e-01, 3.70776415e-01, 2.16111362e-01,
          3.70776415e-01, 3.70776415e-01, 3.70776415e-01, 4.44514424e-01,
          4.44514424e-01, 2.20515147e-01, 1.15778320e-01, 3.32909137e-01,
          4.44514424e-01, 4.44514424e-01, 1.59594342e-01, 8.28083232e-02,
          3.96704048e-01, 3.96704048e-01, 3.55281919e-01, 1.70599490e-01,
          3.96704048e-01, 3.96704048e-01, 3.96704048e-01, 1.89642623e-01,
          1.33688316e-01, 2.51543164e-01, 4.41185921e-01, 4.41185921e-01,
          1.07371487e-01, 1.11111589e-01, 4.41185921e-01, 4.41185921e-01,
          3.57597113e-01, 4.45962660e-02, 3.91731352e-01, 3.03791702e-01,
          2.69445568e-01, 3.91731352e-01, 3.91731352e-01, 3.91731352e-01,
          1.66190803e-01, 1.90550745e-01, 3.91731352e-01, 4.65297461e-01,
          4.65297461e-01, 6.30313382e-02, 8.97677392e-02, 4.65297461e-01,
          4.65297461e-01, 3.11070412e-01, 3.44858207e-02, 1.39141470e-01,
          3.84000689e-01, 4.01803136e-01, 2.18339846e-01, 8.71692374e-02,
          4.23172683e-01, 4.23172683e-01, 4.23172683e-01, 1.31318957e-01,
          2.77722508e-01 ]
      - [ 4.63978618e-01, 4.63978618e-01, 2.79954910e-01, 1.29733875e-01,
          1.55861929e-01, 2.31843561e-01, 3.66580576e-01, 2.04709053e-01,
          4.63978618e-01, 4.44668859e-01, 4.44668859e-01, 7.40212724e-02,
          2.86076870e-02, 4.44668859e-01, 4.44668859e-01, 1.78261418e-02,
          1.70545168e-02, 4.44668859e-01, 4.14112657e-01, 2.42756605e-01,
          1.63038462e-01, 9.71975699e-02, 4.14112657e-01, 2.08463177e-01,
          4.14112657e-01, 4.14112657e-01, 4.14112657e-01, 4.59425122e-01,
          4.59425122e-01, 1.97206214e-01, 1.16249263e-01, 3.27688813e-01,
          4.59425122e-01, 2.93121040e-01, 1.25942916e-01, 3.17224026e-01,
          4.67112839e-01, 4.67112839e-01, 8.19296241e-02, 5.73033206e-02,
          4.67112839e-01, 4.67112839e-01, 6.79061115e-02, 4.87462766e-02,
          3.24920446e-01, 4.15076941e-01, 4.15076941e-01, 1.90487683e-01,
          7.23421872e-02, 4.15076941e-01, 4.15076941e-01, 4.15076941e-01,
          2.44201303e-01, 1.82362080e-01, 2.05349579e-01, 3.66988152e-01,
          3.66988152e-01, 3.66988152e-01, 3.66988152e-01, 3.66988152e-01,
          3.66988152e-01, 1.71208039e-01, 3.41717839e-01, 4.69702393e-01,
          2.19439447e-01, 1.19599216e-01, 2.20195934e-01, 5.13881207e-01,
          5.13881207e-01, 2.18772188e-01, 1.60666928e-01, 2.47952968e-01,
          2.33804330e-01, 1.69838101e-01, 2.76273549e-01, 2.45208919e-01,
          4.44052309e-01, 4.44052309e-01, 4.44052309e-01, 3.76032829e-01,
          2.06524760e-01 ]
      - [ 4.42924649e-01, 4.42924649e-01, 2.89976537e-01, 2.64186978e-01,
          2.84710258e-01, 3.59155685e-01, 2.45012879e-01, 1.61331967e-01,
          3.91430706e-01, 4.55869406e-01, 4.55869406e-01, 3.46492052e-01,
          1.58653349e-01, 2.89015293e-01, 4.55869406e-01, 2.29293033e-01,
          1.13559648e-01, 2.78867662e-01, 3.75135779e-01, 3.35455507e-01,
          3.75135779e-01, 1.20071366e-01, 1.57934904e-01, 3.75135779e-01,
          3.75135779e-01, 3.75135779e-01, 3.75135779e-01, 4.71565783e-01,
          4.71565783e-01, 2.08315849e-01, 1.26361057e-01, 1.59035504e-01,
          4.71565783e-01, 4.71565783e-01, 5.10304682e-02, 1.36138812e-01,
          3.63317341e-01, 4.41420853e-01, 4.41420853e-01, 1.56623036e-01,
          1.40985310e-01, 4.41420853e-01, 4.41420853e-01, 1.16865657e-01,
          1.61605820e-01, 6.74301982e-02, 4.52419519e-01, 4.52419519e-01,
          9.52745974e-02, 8.36443976e-02, 4.52419519e-01, 4.52419519e-01,
          3.91486526e-01, 5.35250530e-02, 2.87904710e-01, 3.54587376e-01,
          3.54587376e-01, 3.54587376e-01, 3.54587376e-01, 3.54587376e-01,
          3.25238645e-01, 2.31073275e-01, 3.54587376e-01, 4.28990752e-01,
          4.28990752e-01, 1.63981631e-01, 1.69574499e-01, 4.28990752e-01,
          4.28990752e-01, 2.81217843e-01, 1.02285914e-01, 3.38217825e-01,
          8.94936025e-02, 3.18188101e-01, 2.42150098e-01, 3.11192811e-01,
          4.11289066e-01, 4.26835150e-01, 4.26835150e-01, 4.26835150e-01,
          1.23622477e-01 ]
      - [ 5.63787401e-01, 5.63787401e-01, 3.05108666e-01, 1.89504191e-01,
          2.23420128e-01, 1.11840576e-01, 1.31469965e-01, 2.53263026e-01,
          2.92921782e-01, 4.58155721e-01, 4.58155721e-01, 9.31835398e-02,
          1.34418249e-01, 4.25086290e-01, 4.58155721e-01, 1.30280197e-01,
          1.28684267e-01, 3.53158951e-01, 3.57563347e-01, 3.29785824e-01,
          2.44924203e-01, 2.91577429e-01, 3.57563347e-01, 3.21567774e-01,
          3.57563347e-01, 3.57563347e-01, 3.57563347e-01, 4.20603961e-01,
          4.20603961e-01, 4.20603961e-01, 1.42404348e-01, 1.31724954e-01,
          4.20603961e-01, 4.20603961e-01, 1.55238375e-01, 2.22554326e-01,
          4.65822220e-01, 4.65822220e-01, 1.92933604e-01, 1.05869606e-01,
          2.09867150e-01, 4.65822220e-01, 4.65822220e-01, 1.48079827e-01,
          1.13939799e-01, 4.50910062e-01, 4.50910062e-01, 2.73582816e-01,
          1.34061351e-01, 2.24722311e-01, 4.50910062e-01, 4.50910062e-01,
          1.84994876e-01, 6.83605373e-02, 3.05191547e-01, 1.53387696e-01,
          4.47030872e-01, 4.47030872e-01, 4.47030872e-01, 2.60867178e-01,
          2.92506784e-01, 9.46950242e-02, 3.41725051e-01, 4.45104569e-01,
          4.29757297e-01, 6.30295649e-02, 2.47096822e-01, 4.45104569e-01,
          4.45104569e-01, 2.85300672e-01, 5.14203832e-02, 2.59689122e-01,
          1.76063940e-01, 1.53305128e-01, 1.96214631e-01, 8.14424530e-02,
          5.25756001e-01, 5.25756001e-01, 5.25756001e-01, 1.89222664e-01,
          1.73355401e-01 ]
      - [ 3.91392887e-01, 3.91392887e-01, 2.48088062e-01, 1.37188047e-01,
          3.91392887e-01, 3.91392887e-01, 3.60166728e-01, 2.65691161e-01,
          3.20400327e-01, 4.45578307e-01, 1.11443631e-01, 1.20592281e-01,
          4.45578307e-01, 4.45578307e-01, 3.08470428e-01, 7.62825310e-02,
          2.71024138e-01, 4.45578307e-01, 9.70422029e-02, 9.13196653e-02,
          3.79095078e-01, 4.86075640e-01, 2.30918422e-01, 7.34077394e-02,
          2.57205933e-01, 4.86075640e-01, 4.86075640e-01, 1.02447636e-01,
          2.14535654e-01, 4.17920560e-01, 4.17920560e-01, 1.30443349e-01,
          2.21360758e-01, 4.17920560e-01, 4.17920560e-01, 4.17920560e-01,
          3.39814216e-01, 3.39814216e-01, 3.39814216e-01, 3.39814216e-01,
          3.39814216e-01, 2.69842803e-01, 3.39814216e-01, 3.39814216e-01,
          3.39814216e-01, 1.05131894e-01, 4.33240503e-01, 4.33240503e-01,
          4.33240503e-01, 1.07776113e-01, 1.41557008e-01, 4.33240503e-01,
          4.33240503e-01, 1.20328136e-01, 1.31678373e-01, 1.18779913e-01,
          4.37452704e-01, 4.37452704e-01, 4.37452704e-01, 1.01081565e-01,
          1.58344179e-01, 4.37452704e-01, 4.04267877e-01, 4.27701801e-01,
          1.48854539e-01, 1.71557963e-01, 4.27701801e-01, 4.27701801e-01,
          1.63668677e-01, 5.20205647e-02, 4.27701801e-01, 4.27701801e-01,
          4.13406134e-01, 4.13406134e-01, 2.46370435e-01, 5.18660769e-02,
          4.13406134e-01, 4.13406134e-01, 4.13406134e-01, 1.78312555e-01,
          2.14855969e-01 ]
      - [ 4.35579360e-01, 4.35579360e-01, 2.78750002e-01, 6.61114678e-02,
          1.87569514e-01, 2.78112561e-01, 2.05256730e-01, 4.35579360e-01,
          4.35579360e-01, 4.64465380e-01, 4.64465380e-01, 1.19491167e-01,
          1.01910420e-01, 4.64465380e-01, 4.64465380e-01, 1.32669732e-01,
          6.87656701e-02, 2.92326242e-01, 3.32778692e-01, 3.32778692e-01,
          3.32778692e-01, 3.32778692e-01, 3.32778692e-01, 3.32778692e-01,
          3.32778692e-01, 3.32778692e-01, 3.32778692e-01, 3.60576063e-01,
          3.60576063e-01, 3.60576063e-01, 2.58573711e-01, 1.39396846e-01,
          3.60576063e-01, 3.60576063e-01, 3.60576063e-01, 3.60576063e-01,
          4.01473850e-01, 4.01473850e-01, 1.46505058e-01, 2.33699426e-01,
          4.01473850e-01, 4.01473850e-01, 3.18855524e-01, 2.15958208e-01,
          3.56199861e-01, 3.45069826e-01, 4.46696758e-01, 4.46696758e-01,
          1.34426638e-01, 1.12222239e-01, 4.46696758e-01, 4.46696758e-01,
          2.13369042e-01, 4.60676402e-02, 1.62787721e-01, 7.16095567e-02,
          3.78784329e-01, 4.41057771e-01, 4.41057771e-01, 1.74582034e-01,
          2.25990340e-01, 3.94135207e-01, 4.41057771e-01, 4.11011755e-01,
          4.11011755e-01, 4.56472225e-02, 3.44515055e-01, 4.11011755e-01,
          4.11011755e-01, 1.15148388e-01, 1.31177232e-01, 4.11011755e-01,
          3.10906976e-01, 4.46827024e-01, 8.11481923e-02, 7.24331662e-02,
          4.46827024e-01, 4.46827024e-01, 4.46827024e-01, 2.86829203e-01,
          7.84431100e-02 ]
      - [ 4.90646571e-01, 4.90646571e-01, 6.04271926e-02, 4.63485159e-03,
          3.83271933e-01, 3.19496632e-01, 7.65165389e-02, 1.19976491e-01,
          4.90646571e-01, 5.59381902e-01, 7.59136677e-02, 1.62946228e-02,
          1.68304697e-01, 5.59381902e-01, 1.10111892e-01, 1.53288534e-02,
          9.47381109e-02, 5.59381902e-01, 4.95704263e-01, 1.53575316e-01,
          4.66191880e-02, 2.44619653e-01, 2.89283872e-01, 9.73086059e-02,
          2.81299382e-01, 4.95704263e-01, 4.95704263e-01, 3.70236158e-01,
          3.70236158e-01, 3.70236158e-01, 3.70236158e-01, 3.70236158e-01,
          3.70236158e-01, 1.23144157e-01, 1.47013217e-01, 3.70236158e-01,
          4.47041005e-01, 1.72072157e-01, 1.98120669e-01, 4.47041005e-01,
          4.47041005e-01, 2.97431320e-01, 9.47818682e-02, 1.72749162e-01,
          4.47041005e-01, 3.34818929e-01, 3.34818929e-01, 3.34818929e-01,
          3.34818929e-01, 3.15951139e-01, 3.34818929e-01, 3.34818929e-01,
          3.34818929e-01, 3.34818929e-01, 1.91139817e-01, 1.57864854e-01,
          4.34669703e-01, 4.34669703e-01, 4.34669703e-01, 1.63367033e-01,
          1.27267167e-01, 3.68192136e-01, 4.34669703e-01, 4.39842671e-01,
          1.02961898e-01, 8.95468518e-02, 4.39842671e-01, 4.39842671e-01,
          4.39842671e-01, 7.74803162e-02, 6.06269203e-02, 4.39842671e-01,
          3.73076826e-01, 2.39452586e-01, 1.58879817e-01, 1.41789243e-01,
          4.76625055e-01, 4.76625055e-01, 4.76625055e-01, 2.20972106e-01,
          1.51741937e-01 ]
      - [ 3.72865856e-01, 3.72865856e-01, 3.72865856e-01, 1.26547590e-01,
          2.03375772e-01, 3.40080798e-01, 3.57909322e-01, 3.72865856e-01,
          3.72865856e-01, 3.86263639e-01, 3.86263639e-01, 1.94479495e-01,
          3.18973124e-01, 3.86263639e-01, 3.86263639e-01, 2.84014732e-01,
          1.72953025e-01, 3.86263639e-01, 2.56012261e-01, 7.60449395e-02,
          3.99262041e-01, 3.99262041e-01, 3.40538472e-01, 1.08022623e-01,
          3.99262041e-01, 3.99262041e-01, 3.99262041e-01, 2.23001897e-01,
          3.88281763e-01, 3.88281763e-01, 2.19636500e-01, 3.84685606e-01,
          3.66992325e-01, 3.88281763e-01, 3.88281763e-01, 1.11506402e-01,
          1.76038846e-01, 3.70226771e-01, 3.70226771e-01, 2.69238621e-01,
          3.70226771e-01, 3.70226771e-01, 3.70226771e-01, 3.70226771e-01,
          2.65358120e-01, 7.17803985e-02, 4.64899927e-01, 4.64899927e-01,
          3.00420135e-01, 5.54172806e-02, 1.59411773e-01, 4.64899927e-01,
          4.64899927e-01, 8.33109617e-02, 1.21929444e-01, 3.80947024e-01,
          4.13933128e-01, 4.13933128e-01, 4.13933128e-01, 2.24180743e-01,
          2.11463407e-01, 4.13933128e-01, 2.35671595e-01, 3.70570332e-01,
          3.37228119e-01, 2.91581154e-01, 3.70570332e-01, 3.70570332e-01,
          2.73211271e-01, 1.90523311e-01, 3.70570332e-01, 3.70570332e-01,
          4.50311244e-01, 4.50311244e-01, 3.40231687e-01, 7.23134279e-02,
          1.77618191e-01, 4.50311244e-01, 4.50311244e-01, 1.29107565e-01,
          1.23195902e-01 ]
      - [ 5.08373320e-01, 5.08373320e-01, 3.54345441e-01, 1.02844700e-01,
          1.50008351e-01, 2.87392102e-02, 8.22247341e-02, 2.31009632e-01,
          5.08373320e-01, 5.62752008e-01, 4.95326906e-01, 1.34293810e-01,
          8.91535133e-02, 2.80766934e-01, 6.53231293e-02, 5.84089719e-02,
          5.62134273e-02, 5.62752008e-01, 4.75769103e-01, 3.74865592e-01,
          1.23544887e-01, 1.15496695e-01, 1.47199869e-01, 7.20954686e-02,
          3.46679568e-01, 4.75769103e-01, 4.75769103e-01, 3.81241441e-01,
          3.81241441e-01, 3.81241441e-01, 2.46004105e-01, 3.24767172e-01,
          3.81241441e-01, 2.95851380e-01, 1.26278803e-01, 3.81241441e-01,
          4.37200040e-01, 4.37200040e-01, 1.71021819e-01, 8.02230611e-02,
          4.37200040e-01, 4.37200040e-01, 1.07902169e-01, 3.26140299e-02,
          4.27395076e-01, 3.04824591e-01, 2.45399565e-01, 1.13610290e-01,
          8.60749260e-02, 4.76794630e-01, 4.76794630e-01, 4.76794630e-01,
          2.79464334e-01, 2.48360619e-01, 1.97901368e-01, 2.35103756e-01,
          4.42518920e-01, 4.42518920e-01, 4.42518920e-01, 4.42518920e-01,
          2.34399572e-01, 1.49119496e-01, 2.01666191e-01, 4.73369509e-01,
          2.60162622e-01, 1.15718670e-01, 2.52846569e-01, 5.03092051e-01,
          5.03092051e-01, 2.61881977e-01, 6.81244507e-02, 2.15553924e-01,
          2.88122207e-01, 2.30000719e-01, 2.34158561e-01, 1.18834831e-01,
          4.97783422e-01, 4.97783422e-01, 4.97783422e-01, 1.92741394e-01,
          9.82213765e-02 ]
      - [ 5.23536563e-01, 5.23536563e-01, 1.46862954e-01, 4.90473583e-02,
          2.87694991e-01, 3.63361776e-01, 8.40946659e-02, 1.50405154e-01,
          4.22045350e-01, 4.48496580e-01, 3.75215709e-01, 1.21583208e-01,
          1.44859239e-01, 4.48496580e-01, 4.48496580e-01, 9.08522606e-02,
          7.82019943e-02, 4.48496580e-01, 4.26593632e-01, 7.15557039e-02,
          2.53260165e-01, 3.38199079e-01, 2.76908904e-01, 8.65557790e-02,
          4.26593632e-01, 4.26593632e-01, 4.26593632e-01, 4.17862386e-01,
          4.17862386e-01, 1.91594332e-01, 2.23744512e-01, 4.17862386e-01,
          4.17862386e-01, 2.93509901e-01, 1.16719075e-01, 3.32939327e-01,
          3.99972260e-01, 3.99972260e-01, 3.37788850e-01, 2.09619045e-01,
          3.99972260e-01, 3.99972260e-01, 2.31995404e-01, 1.29385829e-01,
          3.57055873e-01, 1.30453750e-01, 4.19250399e-01, 4.19250399e-01,
          2.25036293e-01, 1.72367007e-01, 4.19250399e-01, 4.19250399e-01,
          4.19250399e-01, 1.39955059e-01, 4.12847728e-01, 1.44097224e-01,
          3.16788077e-01, 4.16191667e-01, 4.16191667e-01, 3.35267693e-01,
          1.60124198e-01, 2.15846837e-01, 4.16191667e-01, 4.09466833e-01,
          4.09466833e-01, 3.20308357e-02, 3.80869478e-01, 4.09466833e-01,
          4.09466833e-01, 7.75179565e-02, 7.41452128e-02, 4.09466833e-01,
          2.16747373e-01, 4.31522995e-01, 1.69019580e-01, 1.65277958e-01,
          4.59782124e-01, 4.59782124e-01, 4.59782124e-01, 2.54232556e-01,
          8.65933523e-02 ]
      - [ 4.59968716e-01, 4.59968716e-01, 4.59968716e-01, 8.13714787e-02,
          1.60371646e-01, 3.89793962e-01, 3.67468387e-01, 6.80805892e-02,
          1.91688165e-01, 3.43135625e-01, 3.43135625e-01, 2.99804598e-01,
          3.43135625e-01, 3.43135625e-01, 3.43135625e-01, 2.87218660e-01,
          3.43135625e-01, 3.43135625e-01, 2.11881250e-01, 4.89936657e-02,
          3.77360404e-01, 3.53761792e-01, 2.49203324e-01, 9.64354649e-02,
          4.50649261e-01, 4.50649261e-01, 4.50649261e-01, 2.48555705e-01,
          4.42000926e-01, 4.42000926e-01, 1.43503472e-01, 1.09174453e-01,
          4.42000926e-01, 4.42000926e-01, 3.16545099e-01, 1.40116826e-01,
          3.18861783e-01, 3.62081736e-01, 3.62081736e-01, 3.62081736e-01,
          2.17620522e-01, 3.62081736e-01, 3.62081736e-01, 3.62081736e-01,
          2.46438354e-01, 1.66779444e-01, 4.46008056e-01, 4.46008056e-01,
          3.19532424e-01, 1.04202859e-01, 2.34982282e-01, 4.46008056e-01,
          4.46008056e-01, 6.21365793e-02, 1.32364973e-01, 3.38684916e-01,
          3.86037201e-01, 3.86037201e-01, 3.86037201e-01, 1.10721759e-01,
          3.26393157e-01, 3.86037201e-01, 3.86037201e-01, 3.35030258e-01,
          3.35030258e-01, 3.35030258e-01, 3.35030258e-01, 3.35030258e-01,
          3.35030258e-01, 3.14150155e-01, 3.35030258e-01, 3.35030258e-01,
          2.61562705e-01, 4.26274836e-01, 2.47593656e-01, 2.71328926e-01,
          2.07137555e-01, 4.26274836e-01, 4.26274836e-01, 4.26274836e-01,
          1.50525600e-01 ]
      - [ 4.61745262e-01, 4.61745262e-01, 1.14830956e-01, 4.60444428e-02,
          3.20458472e-01, 4.61745262e-01, 1.38225377e-01, 7.38040432e-02,
          4.61745262e-01, 4.33880717e-01, 2.36122772e-01, 5.53031452e-02,
          4.00211066e-01, 4.33880717e-01, 3.46787274e-01, 6.28610104e-02,
          2.96165973e-01, 4.33880717e-01, 3.05376679e-01, 7.63448477e-02,
          2.42460325e-01, 4.52656597e-01, 3.22499275e-01, 1.40371606e-01,
          3.14966917e-01, 4.52656597e-01, 4.52656597e-01, 3.37312281e-01,
          3.37312281e-01, 3.37312281e-01, 3.37312281e-01, 3.37312281e-01,
          3.37312281e-01, 3.37312281e-01, 3.37312281e-01, 2.93927282e-01,
          2.50872016e-01, 2.79465228e-01, 3.16235125e-01, 3.70039344e-01,
          3.70039344e-01, 3.38252306e-01, 3.05171579e-01, 3.70039344e-01,
          3.70039344e-01, 8.79749954e-02, 4.15256649e-01, 4.15256649e-01,
          4.15256649e-01, 1.74666151e-01, 1.39487982e-01, 4.15256649e-01,
          4.15256649e-01, 2.75602132e-01, 2.11658329e-01, 2.43867531e-01,
          4.68458086e-01, 4.68458086e-01, 4.68458086e-01, 1.68251798e-01,
          2.67342746e-01, 2.92958289e-01, 2.16993108e-01, 3.20790768e-01,
          2.06387594e-01, 3.99379164e-01, 4.00386870e-01, 4.00386870e-01,
          1.79252893e-01, 1.32753626e-01, 4.00386870e-01, 4.00386870e-01,
          4.00582880e-01, 4.00582880e-01, 3.87718529e-01, 8.44293758e-02,
          3.36575121e-01, 4.00582880e-01, 4.00582880e-01, 2.11141765e-01,
          1.97012678e-01 ]
      - [ 4.74867731e-01, 4.74867731e-01, 3.33486944e-01, 4.25742157e-02,
          2.18866140e-01, 1.31767944e-01, 3.16759884e-01, 2.00326622e-01,
          4.74867731e-01, 4.48649079e-01, 4.48649079e-01, 7.46477768e-02,
          3.31563391e-02, 4.48649079e-01, 4.22625184e-01, 6.85019493e-02,
          1.99603401e-02, 4.48649079e-01, 4.34424847e-01, 2.65151113e-01,
          1.07079752e-01, 2.59867013e-01, 4.34424847e-01, 2.04577491e-01,
          2.22725973e-01, 4.34424847e-01, 4.34424847e-01, 4.37485516e-01,
